66 48
0.018272 0.001052 0.001304 -0.013076 -0.001957 -0.005954 -0.006446 -0.006823 -0.013382 -0.001300 0.023842 0.003863 0.000365 0.004012 0.018085 -0.003328 0.011131 0.005931 -0.006021 0.003591 0.008227 -0.033123 0.006478 0.010346 0.021863 -0.013176 -0.016820 0.006227 -0.000185 -0.001404 -0.004851 0.002400 -0.016859 0.020519 0.029736 -0.006852 -0.014289 0.001988 -0.002378 -0.010435 -0.003185 0.002776 0.010827 -0.001665 -0.001605 0.006999 -0.004012 0.006869 -0.001070 0.003451 0.006092 -0.000929 0.002767 0.000025 0.007355 0.011207 0.008572 0.005290 0.002611 0.001217 0.002303 -0.003714 -0.004164 0.003684 -0.015156 -0.008060 0.009807 0.009920 -0.002708 0.020959 0.005764 0.008320 -0.006823 -0.000089 0.004724 0.005333 0.009121 -0.013138 0.010234 0.014113 0.001290 -0.013604 -0.015266 0.001450 0.001770 0.005850 -0.002313 0.001818 -0.001169 0.003211 -0.008497 0.004723 -0.020275 -0.001371 -0.011688 -0.007329 -0.019905 0.013859 0.013833 0.016186 0.000509 0.003463 0.009195 0.013118 0.000468 -0.004698 -0.041714 -0.016017 0.006585 0.002750 -0.007634 -0.003130 -0.013313 -0.017649 -0.004785 -0.022810 -0.007521 0.032796 0.013110 -0.000623 -0.021987 -0.007320 0.021418 -0.001240 -0.014111 -0.002588 0.003196 0.005409 -0.009852 -0.006879 -0.021242 -0.006821 -0.005095 0.012472 0.020113 0.030474 0.016198 -0.026486 -0.006334 0.017559 -0.005410 0.014625 0.002707 -0.024132 0.002810 0.004672 -0.000477 -0.006695 -0.000206 0.013526 -0.000306 0.002441 -0.008061 0.004017 0.003256 0.004573 -0.002090 -0.003905 -0.004329 -0.004498 0.001343 -0.006379 -0.000185 0.004649 -0.002591 -0.001389 -0.003133 -0.000335 -0.005667 0.004405 -0.006723 -0.005328 0.011606 0.009051 -0.006859 -0.005458 0.003736 0.001554 -0.004374 0.002450 0.004304 -0.019652 -0.009916 -0.003161 0.002744 0.012888 -0.001919 -0.004570 0.009128 0.009351 -0.006290 -0.000849 0.005282 0.008647 -0.006180 -0.010527 0.009456 0.002215 -0.017635 0.004808 0.014475 -0.000758 0.031841 0.010993 0.006260 0.000896 0.010546 0.004561 0.014719 0.024228 -0.016473 0.017156 0.009282 -0.022192 -0.005841 0.011561 0.018590 -0.006789 -0.015067 0.002259 0.002979 -0.008315 -0.007628 0.002543 -0.004569 0.001451 0.020871 0.009095 -0.013710 -0.004995 -0.022677 -0.023358 -0.013529 0.013510 0.010107 -0.014356 0.012531 -0.007381 -0.001661 0.010346 -0.008457 0.001343 0.002937 0.001414 0.001434 0.005462 -0.001289 0.007836 -0.002142 -0.012228 -0.009262 -0.008154 0.003682 -0.003759 -0.000520 0.002778 -0.009169 0.009319 -0.000108 0.000706 0.004041 -0.000547 -0.000862 0.006040 -0.006925 -0.016901 0.009284 0.003151 0.006458 -0.003294 0.001465 -0.009384 -0.000541 -0.000809 0.003302 0.002358 0.003749 -0.002762 -0.003087 -0.006001 0.002165 -0.005848 0.002909 -0.002552 0.002488 -0.004659 -0.001153 0.007261 -0.015601 0.008718 0.004609 0.010826 -0.003241 0.003890 0.001542 -0.007951 -0.020416 -0.008914 -0.030528 -0.004566 -0.005213 -0.006390 -0.003864 -0.005621 -0.010667 -0.026043 0.004115 -0.024137 0.000395 0.014488 0.007709 -0.009241 -0.022408 -0.001262 0.014667 0.000728 -0.005879 -0.004801 -0.001933 0.005988 -0.004973 0.001968 -0.013421 -0.007730 0.029680 0.017305 0.014113 0.017326 0.020804 -0.013232 -0.001415 0.001137 0.012073 0.025871 0.000268 0.001256 0.002044 0.014691 -0.008855 0.001351 0.000461 0.002575 0.009435 0.010745 0.007057 0.001051 0.008415 0.005960 0.000509 -0.006534 0.009930 0.000835 0.001951 -0.017045 0.001037 -0.002713 -0.010189 0.014929 0.000685 0.000238 0.001718 0.008160 0.000999 -0.001270 0.007017 -0.003597 0.014701 0.002618 -0.002845 0.002032 -0.004906 0.002590 -0.002467 -0.007062 -0.000834 0.003177 0.006573 0.003715 0.004924 -0.007450 0.000036 -0.003418 -0.004456 -0.005788 0.017027 0.003082 0.003873 -0.020606 0.001486 -0.007610 -0.007764 0.010813 0.014852 0.001267 0.033170 0.008842 0.009433 0.016307 0.017487 -0.006805 0.017846 0.000737 -0.002357 0.015390 0.002948 -0.025955 -0.013565 0.004121 0.015500 0.009378 -0.009713 0.000072 -0.006422 0.005869 -0.012887 -0.030200 -0.012958 -0.005712 0.019720 -0.006449 -0.015162 0.004610 -0.007787 -0.004962 -0.006772 -0.005345 0.001875 -0.002472 0.014040 -0.018780 -0.003818 -0.004490 -0.001726 -0.005222 -0.001798 -0.001557 -0.001632 -0.000312 -0.006720 -0.000410 -0.000887 0.018308 -0.000908 0.007511 -0.000092 0.001128 -0.000703 -0.004801 -0.012310 0.005655 -0.000928 -0.001228 0.000499 -0.006877 -0.001756 -0.003698 0.000874 -0.003436 -0.003719 -0.000939 0.006655 -0.000993 0.001155 -0.002249 0.002722 -0.003603 0.000877 -0.002875 -0.000966 -0.007812 -0.005985 -0.003716 -0.001272 0.002827 -0.006270 0.000468 -0.006269 0.006824 -0.005993 0.010523 -0.015875 -0.005650 -0.002981 0.015238 -0.000521 -0.013575 0.009678 0.003843 -0.011699 0.006362 -0.028298 -0.011598 -0.011508 -0.005122 -0.003544 -0.011223 -0.011152 0.015632 0.011857 -0.020482 0.005597 0.033509 0.005208 0.009714 -0.023563 -0.001038 0.002913 0.002246 -0.008836 -0.010723 -0.002597 0.022040 -0.001548 0.004546 -0.005577 0.001600 0.004473 0.010952 0.010274 0.015700 0.016661 -0.002122 -0.003581 0.008115 0.000697 0.012776 0.005635 -0.008592 -0.000258 0.004068 0.003792 0.002527 -0.005342 0.006005 0.001810 0.008635 0.005380 -0.002037 -0.004209 -0.002267 0.005141 0.002129 -0.004986 -0.000776 0.003373 0.004382 0.004432 -0.003393 0.002192 0.007076 0.010364 0.003758 -0.004114 -0.001805 -0.005672 -0.001380 -0.000889 0.003430 -0.005405 -0.010235 -0.003876 0.002084 0.004893 0.004607 -0.012891 0.008752 -0.003499 -0.001046 -0.002115 -0.004916 0.001469 -0.012683 -0.008717 0.000303 -0.003676 -0.007397 0.022697 -0.012582 -0.003747 -0.017331 -0.006338 -0.008226 -0.016151 -0.005594 0.012835 -0.003037 0.039219 0.004088 0.009229 0.021188 -0.002621 0.002084 0.025033 0.017839 0.012941 0.009828 0.001401 -0.020259 0.007440 -0.002113 0.019104 -0.000213 -0.005146 0.016760 0.003272 0.010174 0.007764 -0.010039 -0.001931 -0.012974 0.011323 -0.006869 0.000163 -0.019400 -0.010580 -0.011897 -0.016814 -0.012674 0.016823 -0.004040 0.006240 -0.022960 -0.019774 0.015168 0.000811 0.004616 0.002739 0.004649 0.002849 0.008157 0.010438 0.006843 -0.006694 -0.010610 -0.001460 0.008068 -0.011845 -0.001366 -0.003417 -0.006198 -0.006717 0.005990 -0.006031 0.004540 -0.003476 0.005325 -0.014055 0.011894 -0.011954 0.003671 -0.000585 -0.006398 0.000491 -0.003943 0.013429 0.002594 0.004511 0.008043 -0.006051 0.001940 -0.001473 -0.012275 -0.006726 0.003227 -0.004568 0.011106 -0.004917 0.003135 -0.003083 -0.000940 0.002231 0.004172 -0.006317 0.005465 0.005265 0.008287 -0.002329 -0.011181 0.003809 0.001035 -0.005685 -0.018520 -0.028083 -0.012442 0.001210 -0.010603 0.008569 -0.007603 -0.019318 0.000903 -0.002682 -0.037392 -0.004901 0.017944 0.001866 0.005751 -0.020903 -0.007374 -0.005895 -0.011805 -0.003045 -0.009132 -0.015860 0.013385 -0.008914 0.012926 -0.009650 0.004517 -0.011652 0.000202 0.006178 0.021103 0.002549 -0.010658 -0.003081 -0.005367 0.003974 0.004298 -0.002273 -0.008249 0.002175 -0.005303 -0.003168 -0.003811 0.003290 0.010406 -0.005892 0.010423 0.004329 0.015146 0.001540 0.001092 0.009392 -0.000481 0.003336 0.005618 -0.006585 -0.000345 0.006617 0.005618 -0.000621 0.002619 0.003148 0.001408 0.000208 0.007358 -0.000241 -0.016642 0.004665 -0.000787 0.000172 -0.007825 0.001021 0.003905 -0.008789 0.003552 -0.008218 0.004450 0.000211 0.002474 0.005942 0.004641 0.002293 -0.000402 0.002532 -0.003282 -0.004165 -0.000891 0.001794 -0.001312 0.005976 -0.007512 0.002756 0.001816 -0.011925 0.005005 0.000529 -0.002892 0.029620 0.000665 -0.003921 0.007407 0.008765 -0.002352 0.013078 0.018971 -0.011716 0.006812 0.003487 -0.028381 -0.003724 0.011992 0.026094 -0.004558 -0.002337 0.002929 -0.006748 0.002302 0.010410 -0.014514 -0.003830 -0.016669 0.026965 0.006022 -0.036018 0.001526 -0.014473 -0.024001 -0.006377 0.002820 -0.008223 -0.014984 -0.000994 0.002643 0.000935 0.013294 -0.004554 0.002004 0.006850 0.004984 -0.004455 0.009834 0.004348 -0.008852 0.001065 -0.002130 0.000582 0.001730 -0.000584 0.003219 -0.010503 -0.004484 -0.003814 -0.004523 0.007970 -0.004072 -0.002991 -0.004372 -0.000286 -0.003780 -0.004316 0.001445 -0.001714 -0.010569 0.005819 -0.001120 -0.002275 0.007040 -0.003204 -0.006781 -0.007719 0.006556 -0.005046 -0.002851 -0.006819 0.005913 -0.006664 0.008792 -0.007168 0.001189 -0.008052 0.006421 -0.003311 0.002979 -0.004813 -0.004753 0.000402 0.015739 0.010402 -0.000738 0.026162 0.006315 -0.011158 -0.007118 -0.011407 0.004991 0.003281 -0.018037 -0.013487 -0.006764 -0.008822 0.017747 0.018130 -0.006527 -0.009715 0.033256 0.012558 0.003223 -0.022266 -0.005469 0.000666 -0.007902 0.006837 -0.002720 -0.014497 0.014100 0.001641 -0.005923 -0.010375 -0.006918 -0.000247 0.005203 0.015033 0.027913 0.012372 -0.007176 -0.005039 0.000922 0.006073 0.018806 0.006905 -0.015333 -0.001106 0.002401 -0.002599 -0.002819 0.003714 0.003004 -0.005530 -0.000632 -0.004710 -0.005469 0.002110 0.001471 0.006749 -0.001420 -0.005812 -0.000064 -0.003069 0.002421 -0.003500 -0.005314 -0.006864 0.006485 -0.008038 0.005869 -0.000634 0.001955 -0.000852 -0.004886 -0.006093 0.008769 0.004982 0.006293 -0.002814 -0.004173 -0.007911 0.000838 0.012242 -0.007304 -0.006097 -0.001001 0.005785 0.006121 -0.001991 0.003528 -0.010506 -0.007854 -0.002823 0.003352 0.008409 -0.020222 -0.004967 -0.017882 0.000455 0.011738 -0.020221 0.009914 0.012387 -0.005367 0.040761 0.007990 0.005883 0.019707 0.020460 -0.011584 0.011605 0.004428 -0.009891 0.011289 0.010744 -0.027611 -0.004638 0.004135 0.015299 -0.000298 -0.020454 0.004843 -0.003024 -0.006353 0.011126 -0.014441 -0.004561 -0.000265 0.020072 0.002436 -0.051463 -0.010206 -0.022381 -0.021303 -0.028109 0.011902 -0.003839 -0.009346 0.005979 -0.007163 -0.009002 0.007500 0.002022 0.009330 0.009681 0.001250 0.002515 0.003136 0.002259 0.027665 0.011959 -0.003524 0.000619 -0.000432 0.000931 0.002868 0.010114 -0.003528 0.000888 0.000429 0.004856 -0.003137 0.002107 0.003335 -0.008024 0.003430 -0.009850 -0.010471 -0.014548 -0.012267 0.001500 0.007292 0.003400 -0.000039 0.001666 0.002905 -0.001533 0.000753 -0.009745 0.009043 0.004649 0.003566 -0.009276 0.012490 -0.005654 -0.003812 -0.025544 0.000949 -0.012116 0.003365 -0.007723 -0.009749 0.019359 0.020015 -0.009278 -0.014683 0.015585 0.025061 -0.014597 -0.012685 -0.012658 -0.019678 0.006275 -0.002692 -0.004365 0.009871 -0.008148 0.015191 0.010665 -0.012771 -0.004094 0.013201 0.017738 0.002379 -0.032021 -0.014991 0.012759 -0.009370 -0.001355 -0.006847 -0.002347 0.009265 0.001570 0.007910 -0.020954 0.005224 -0.066393 0.009530 0.008613 0.021443 0.004069 -0.020664 -0.009276 0.007151 0.022393 0.015134 0.010122 -0.019250 0.000272 0.004929 0.011081 -0.004442 0.005064 0.010416 -0.000561 -0.003035 -0.009200 0.003803 0.000211 -0.003139 0.013247 -0.003311 -0.008657 -0.000140 -0.003604 -0.010620 0.004595 -0.002033 0.003872 0.004565 -0.003637 -0.011537 0.000873 -0.007179 -0.004359 -0.006167 0.006066 -0.012753 -0.007541 0.010128 -0.010018 -0.010533 -0.015858 0.002002 0.007841 -0.002200 -0.002608 0.001365 -0.002358 0.008616 -0.004079 -0.006053 -0.021770 -0.004407 -0.006458 0.000892 0.019554 -0.001244 0.005327 -0.011849 0.020699 0.029314 -0.018921 -0.000107 0.021982 -0.015929 0.033190 0.013910 -0.003815 0.022000 0.018289 -0.010469 0.017089 0.030428 0.007124 0.014837 0.015021 -0.022131 -0.007107 0.003128 0.023112 0.002438 -0.007848 0.001622 -0.013787 -0.004485 0.006957 -0.025753 -0.020218 -0.034132 0.003798 0.005130 -0.044498 -0.000780 -0.012650 -0.016747 -0.025081 0.005330 -0.001229 0.004170 -0.005350 -0.032928 -0.001941 0.022784 -0.001168 -0.000574 -0.006308 -0.002962 -0.004638 0.006772 -0.003329 0.030561 0.005759 0.000727 0.000593 -0.014176 0.017562 -0.009261 -0.022188 -0.009377 0.001731 -0.005583 -0.000999 -0.000019 0.003900 0.008327 -0.009980 0.005301 -0.008058 -0.001453 -0.006295 -0.016000 0.012377 0.011924 0.007460 0.002706 -0.006405 -0.009449 0.006575 0.001360 -0.011881 0.011898 -0.016299 -0.002345 -0.000395 0.007037 -0.005170 -0.009068 -0.012262 0.000825 0.002727 0.003881 -0.016619 -0.033024 0.013135 0.017151 -0.000931 0.008821 0.014999 -0.010512 -0.019976 -0.003698 -0.012023 -0.004376 0.008360 -0.003235 -0.001334 -0.014641 -0.030056 0.017005 0.002305 -0.015427 -0.000828 0.026895 -0.008824 0.021107 -0.030281 0.001257 -0.006664 0.000410 -0.011530 -0.010180 0.017011 0.014006 -0.008376 0.023601 -0.016658 0.002562 -0.067330 -0.012344 -0.009045 0.020365 0.006046 -0.012154 -0.018986 0.008883 0.019880 -0.000830 0.001634 -0.006786 0.008018 -0.000298 0.003167 0.000250 0.000379 0.000869 -0.012837 -0.007188 -0.002063 -0.003242 0.006585 -0.009591 0.019212 -0.003520 -0.011047 -0.006890 0.004596 -0.024831 -0.005216 -0.002523 -0.000883 0.003456 -0.014588 0.003141 -0.000200 -0.006230 -0.000574 -0.013732 0.005270 0.007729 0.003688 -0.001072 -0.009660 0.008859 -0.018732 0.001002 -0.004395 0.005291 -0.004336 0.005743 -0.001051 0.015154 -0.003032 -0.007582 -0.042655 0.011079 -0.011102 -0.004182 0.022500 -0.016324 -0.005784 -0.012250 0.042962 0.045256 0.002854 0.034365 0.021381 0.000151 0.043632 0.011817 0.011351 0.029138 0.012108 0.006905 0.025457 0.042602 0.000461 0.015487 0.018770 -0.019756 -0.003566 0.013406 0.006292 -0.019493 -0.011981 -0.005845 0.009900 -0.013831 0.002594 -0.028649 -0.021376 -0.012774 0.034873 -0.016933 -0.070551 -0.021459 -0.007826 -0.014825 -0.014283 0.002682 0.003244 -0.010197 0.026552 -0.021714 -0.014761 0.030095 -0.003839 -0.002425 -0.004068 -0.005054 -0.005024 -0.004850 -0.012086 0.023656 0.007380 -0.016144 -0.009212 -0.011104 0.019672 -0.003082 -0.023525 -0.005718 -0.005351 -0.031521 0.006325 0.003908 0.003619 -0.003777 -0.011845 -0.014713 -0.007044 -0.004641 -0.001614 -0.008129 0.001658 0.011366 -0.006148 0.023595 -0.008840 -0.006342 -0.006194 0.011886 0.001165 -0.000317 -0.012412 -0.004283 0.003130 0.025792 0.001998 0.002337 -0.064474 -0.007393 -0.005714 -0.014373 -0.016129 -0.019487 0.011859 0.014789 0.025311 0.027854 0.033454 0.026367 -0.009367 0.009572 0.014623 0.008447 -0.011957 -0.002653 -0.002602 -0.022282 -0.028911 0.010324 -0.013757 -0.005536 -0.005807 0.033356 -0.016282 0.023075 -0.012232 -0.027255 -0.003224 0.020626 -0.013458 -0.024157 0.053872 -0.002181 -0.021975 -0.007917 -0.001726 0.004388 -0.055653 -0.023170 0.034165 0.023997 -0.009432 -0.018211 -0.007031 0.007000 0.044549 0.019203 0.002932 -0.030661 0.007563 0.006630 -0.005253 -0.000971 -0.005821 -0.025592 -0.002347 0.036226 -0.018735 -0.006223 0.016729 -0.015486 0.042713 -0.006902 -0.014764 -0.012267 -0.002594 -0.017611 0.032208 0.010508 0.003841 0.006732 -0.014575 0.014529 -0.024097 -0.003696 0.007379 -0.025290 -0.004412 0.013763 -0.021175 0.008913 -0.005617 -0.008616 -0.015430 0.002368 0.001773 0.021277 -0.015117 -0.001198 0.004112 0.019005 -0.008956 0.008582 -0.092006 0.030638 0.007581 0.003422 0.022278 -0.065479 -0.008769 -0.017412 0.059970 0.123044 0.019963 0.015611 0.012725 -0.006189 0.040749 0.013362 0.005410 0.035372 0.041738 -0.011749 0.017775 0.028917 0.001161 0.020246 0.031332 -0.012539 -0.023943 0.026988 0.014589 -0.004265 -0.038607 -0.008222 0.007657 -0.008121 0.020250 -0.042932 -0.056686 -0.009369 0.036363 0.003901 -0.071964 -0.018279 -0.015724 -0.017650 -0.016408 -0.010267 0.005579 0.002523 0.066795 -0.077521 0.010011 0.008963 0.010577 0.007540 -0.025096 -0.001942 -0.013476 -0.031899 -0.035008 0.008129 0.027890 -0.023527 0.007710 -0.002267 0.024819 -0.017042 -0.059721 -0.002606 -0.006560 -0.048919 0.042682 -0.004136 0.003539 -0.014457 -0.034458 -0.011919 -0.020580 -0.022750 0.004791 -0.001824 0.002086 0.018586 -0.004240 0.017060 -0.010721 -0.012744 0.019558 -0.004263 0.012717 0.000390 -0.015739 0.013920 0.018220 0.026588 0.005176 -0.008047 -0.153205 0.015551 -0.011115 -0.003762 -0.012591 -0.108516 0.043755 0.016091 0.108374 0.172959 0.080051 0.017217 -0.016113 0.005917 0.025869 0.012318 -0.025521 -0.013782 0.045028 -0.001406 0.002276 0.073297 -0.038392 -0.026993 0.007950 0.004188 -0.029229 0.051885 -0.015613 -0.019107 -0.038763 -0.013873 -0.015856 -0.010601 0.123656 0.003435 -0.044242 -0.000204 -0.014127 0.002448 -0.029870 0.001613 0.062108 0.022851 -0.007810 -0.008923 0.003417 0.044896 0.070597 -0.048448 0.059570 -0.036432 -0.009093 0.045074 -0.008219 -0.013843 -0.016161 -0.034092 -0.034243 0.034652 0.000540 -0.014134 0.013504 -0.001968 0.103771 -0.006111 -0.078310 -0.007198 -0.021307 -0.095551 0.110257 -0.003234 0.007442 -0.023541 -0.052843 0.003629 -0.027032 0.002408 0.010068 -0.032308 0.012315 -0.072069 -0.077921 0.018462 0.003029 0.015995 -0.019522 0.000214 -0.033303 0.005186 -0.001991 0.012334 -0.000129 0.022427 -0.007435 -0.020935 -0.211121 -0.067006 -0.024413 0.012232 0.024892 -0.098632 -0.060855 -0.025558 0.183255 0.197805 0.050619 -0.017823 0.006176 0.002341 0.085488 0.008044 0.040927 -0.015262 0.126661 -0.017632 0.042692 0.295725 -0.099881 0.009076 0.036312 -0.084663 0.020176 0.027721 -0.026815 -0.017216 -0.058494 0.038918 0.018648 -0.050833 0.281735 -0.090595 -0.079341 0.014783 0.043927 -0.001955 0.010836 -0.012974 0.046627 0.001031 -0.002673 -0.005710 0.029645 -0.013342 0.053129 -0.145780 0.037761 -0.025594 -0.026784 0.061925 -0.005974 -0.010342 0.032011 0.057619 -0.077471 0.066317 0.022483 -0.061978 -0.013677 -0.016318 0.002637 -0.020144 -0.164990 0.010906 -0.026261 -0.220447 0.313272 0.019373 0.003008 -0.038618 -0.044913 0.015703 -0.018028 -0.024112 0.033214 -0.042427 -0.002418 -0.108156 -0.209730 0.012275 -0.000606 -0.015641 0.009245 0.007920 -0.039622 0.014304 0.002274 0.004154 0.002372 0.025077 0.002402 -0.014359 -0.256484 -0.141560 -0.022923 0.011540 -0.016162 -0.262078 -0.026479 -0.009910 0.243207 0.616215 0.024428 0.017723 0.017882 -0.024098 0.036447 -0.004210 -0.236394 -0.060535 0.115931 -0.019895 0.091431 0.324744 -0.114631 0.061671 0.036609 -0.077730 0.001973 0.087712 0.262140 -0.027409 -0.067336 -0.012702 -0.004462 -0.094545 0.214720 -0.115999 -0.080451 0.088462 0.005212 0.028578 -0.023320 0.005988 0.267278 0.053163 0.019862 -0.020840 0.121209 -0.000291 0.138726 -0.205572 0.084483 -0.070725 -0.054787 0.087902 -0.051258 -0.030838 0.036822 0.014509 -0.013134 0.119506 0.022838 -0.004514 0.035453 -0.008799 0.250414 -0.043157 -0.140335 0.069091 -0.063242 -0.210904 0.439209 0.008953 0.006593 -0.000325 -0.088052 0.049489 -0.118562 -0.037859 0.014061 -0.056151 0.027346 -0.269082 -0.110977 0.226290 -0.017379 -0.018475 -0.045216 0.014960 -0.023299 0.049762 0.026332 0.002669 -0.023578 0.037714 0.022635 -0.007350 -0.340176 -0.232291 -0.023845 0.013095 0.052596 -0.283134 -0.051358 -0.008325 0.483667 0.885959 -0.490105 -0.033363 -0.074764 0.084521 0.157944 -0.007687 0.143195 -0.042172 -0.159345 0.123508 0.039353 0.508311 -0.081239 -0.054740 0.024133 -0.047451 0.252968 0.003091 -0.424926 -0.092553 -0.015509 -0.622203 0.033584 -0.016752 0.297330 0.174113 -0.133647 -0.005065 0.065043 -0.057367 0.291635 -0.080367 0.167758 0.026529 -0.045473 -0.066961 0.361574 -0.010214 -0.003832 -0.335173 0.555765 -0.075307 -0.050965 0.106923 -0.079056 0.002405 0.209418 -0.189731 0.133816 0.092585 0.054364 -0.085036 -0.018793 -0.073463 -0.139380 -0.073009 -0.270811 0.317175 -0.023982 -0.408813 0.402749 0.084331 0.090297 -0.068948 0.067331 0.085310 -0.004399 -0.063196 -0.006786 0.529194 -0.012966 -0.723062 -0.247095 0.288501 -0.055069 0.068341 0.037132 0.184436 -0.187718 0.211762 -0.166976 0.015458 -0.077025 0.081530 0.074054 0.006313 -0.327684 -0.134115 0.190449 -0.008522 -0.256568 -0.135483 -0.546094 -0.013553 0.180704 0.368700 -0.567466 -0.253374 0.334184 -0.026729 -0.068087 0.023473 0.075407 -0.063516 -0.435342 -0.091293 0.126105 0.182656 -0.051898 1.799638 0.237194 -0.928483 -0.319477 0.088997 0.578490 -0.409518 0.268132 -0.146832 0.406500 -0.225733 0.302018 0.058105 -0.168411 0.154848 0.081647 0.131495 0.276520 0.277226 -1.627724 -0.022378 0.103966 -0.245272 -0.004496 -0.035288 0.088423 -0.022361 0.530557 -0.217948 0.044882 0.006198 -0.319729 0.034322 0.157375 -0.259676 -0.010857 0.541950 0.534380 0.192563 0.100272 0.130242 -0.110395 -0.211921 -0.621678 0.043902 -0.054724 -0.343380 0.143491 0.065346 0.155049 -0.429678 0.130558 0.032795 -0.101270 -0.308000 -0.183431 0.279099 0.215051 -0.741913 -0.238350 -0.866721 -0.035732 0.011666 -0.165188 -0.052448 -0.130170 0.175202 -0.121047 -0.001404 -0.055833 0.183878 0.002904 0.013102 -0.345977 -0.270089 0.218407 0.142036 0.163052 0.310228 -0.927608 0.760005 -0.179775 0.004483 0.774994 0.165725 -0.235891 -0.356176 0.300053 -0.003547 -0.207758 -0.119025 -0.232631 -0.442852 -0.957456 -0.129337 0.046577 0.000233 0.112552 0.988638 0.013015 -0.089058 -0.624162 -0.642527 1.061185 0.108920 0.380759 -0.121998 0.262038 0.167428 -0.070700 0.727843 0.174500 0.807303 0.239575 0.949054 0.000012 -0.042225 -0.176108 -1.129747 -1.245709 -0.352171 0.027271 -0.368306 0.037843 -0.060327 0.303526 -0.219492 -0.237758 0.403328 0.193671 -0.173189 0.030245 0.491581 -0.389405 0.661651 0.048834 0.031433 0.364394 -0.156307 -0.265712 -1.165884 0.612600 -0.185066 -0.351900 0.190622 -0.052656 0.289127 -0.081096 -0.001905 -0.236222 -0.608247 -0.458634 0.073393 0.186330 0.614482 -0.206176 -0.658052 -0.022373 0.278134 -0.168937 -1.215088 -0.101971 -0.510676 -0.127087 0.077833 -0.383358 0.343050 -0.512346 0.302440 -0.175813 -0.153912 0.145651 0.119973 0.599358 0.579818 -0.724799 -0.029056 0.028316 -0.443246 0.037199 0.382439 -0.024602 0.285068 1.154683 0.039477 0.198731 0.565034 0.422390 -0.370752 -0.001039 -0.176885 0.135096 -0.223810 -0.905086 0.010529 0.433089 -0.101949 0.159197 -0.665327 0.240186 0.352003 -0.557785 0.033742 0.275331 -0.161831 1.047735 0.639592 -0.012760 0.788962 -0.185212 0.524089 0.228546 -1.696144 -0.042780 0.055702 -0.859488 -0.870620 0.004844 -0.045336 -0.313944 1.787252 -0.269541 -0.374217 0.107015 0.142865 0.003082 0.069383 -0.468241 0.476029 -0.070132 -1.009328 -0.219120 0.633512 0.005275 0.563505 0.053334 -1.048627 0.019986 -0.246127 -0.596861 0.151846 -0.876669 0.032387 0.214668 -0.028502 0.166758 -0.395861 0.195108 -0.176484 0.134376 0.491395 -0.193891 0.357816 0.327502 0.332980 0.064165 -1.325988 -0.088635 -0.464406 0.090610 -0.157027 -0.967170 0.022670 -0.400456 0.654227 0.069914 -0.367596 -0.005986 -0.995665 -1.368371 0.680298 0.334497 0.010166 0.390166 -0.643731 -0.227766 0.585973 0.050952 0.353153 -1.094930 -0.051304 0.001877 0.043655 0.211719 -0.078034 -0.054070 -0.351969 0.084839 -0.048032 -0.824371 0.166499 -0.123002 -0.745902 0.039938 -0.435084 -0.603310 0.387531 -0.718968 0.045884 0.248663 -0.019637 1.088461 0.078791 -0.993915 0.150115 0.016207 -0.007549 0.024138 0.037986 0.404912 0.112415 0.055534 0.373539 -0.130128 -0.337603 -0.698470 -0.013144 -0.736116 -0.427837 0.632156 0.023776 0.121814 0.224034 0.109749 0.492858 0.069725 -0.663669 0.337227 -0.192627 -0.037530 0.392199 -0.127898 -0.047817 0.009733 -0.282723 -0.771103 0.093386 -0.796741 -0.087011 0.030895 -0.573244 -0.072321 -0.010155 0.096557 -0.264094 0.184156 0.047224 -0.188355 0.121157 0.267053 0.081807 -0.194786 -0.215367 0.071992 -0.116645 -0.052856 0.035379 0.533646 0.059258 -0.004820 -0.378005 0.184822 -0.194241 0.015514 0.109224 0.260970 0.595945 0.714425 0.014177 0.021171 -0.472946 0.005359 0.784071 -0.019855 -0.101584 0.025066 -0.043932 -0.040941 -0.028050 0.133887 0.186691 -0.012019 -0.166526 0.029997 -0.035924 0.374782 0.058006 -0.156192 -1.039755 -0.009030 0.059612 -0.807274 0.017357 0.075392 0.094539 -0.200768 0.030081 -0.034820 -0.755106 0.252097 -0.104196 0.422719 -0.131965 0.011285 -0.015708 -0.249725 0.017168 0.301143 0.767664 -0.233684 -0.220831 -0.949248 -0.087097 -0.272575 -0.394135 0.643093 -0.003069 0.025664 0.298614 0.025818 0.246814 -0.038075 -0.056861 0.002226 -0.010083 -0.019710 -0.002774 -0.125744 0.263401 -0.029614 -0.125293 -0.481411 0.027462 0.209057 -0.086459 0.118678 -0.794305 -0.047506 0.182417 -0.220156 -0.024205 -0.023595 -0.092577 0.082366 0.016750 0.003901 -0.052806 0.502960 0.211691 0.192769 -0.016078 -0.066676 0.007374 0.203155 0.003319 0.135488 -0.746844 0.390214 -0.224589 -0.120354 0.111288 0.071905 -0.078691 0.336457 -0.014421 0.031547 -0.226646 -0.092197 0.596343 -0.001320 -0.027316 0.004291 -0.020908 -0.000433 0.014543 0.111047 -0.031692 0.072155 -0.248305 0.017403 0.019020 0.264560 -0.028910 0.003622 0.300530 0.021374 0.537286 0.084079 0.077056 0.043534 0.071242 -0.652170 0.005293 -0.013298 -1.055658 0.032189 0.015003 0.437192 -0.111039 -0.019223 0.003821 -0.063282 -0.043481 0.102648 0.410529 -0.226373 -0.131922 0.039562 0.071044 0.106880 0.005873 0.280942 -0.003996 -0.011702 0.098671 0.055547 0.220169 0.002879 0.071272 0.010192 -0.035451 -0.046509 -0.015097 -0.067421 -0.005668 -0.030456 -0.189940 0.012563 -0.011022 0.209660 -0.015976 0.006880 0.175835 -0.020754 0.310899 -0.001083 -0.055800 0.034287 -0.089745 0.406365 0.063913 0.003162 -0.225105 0.004267 -0.003163 0.066254 -0.010261 -0.045704 -0.025839 0.019046 0.016734 0.027229 -0.418914 0.546753 -0.003209 -0.090351 0.031699 -0.068566 -0.038555 -0.051239 0.029270 -0.019374 0.044970 -0.029475 0.211958 -0.004715 -0.020322 -0.063150 -0.075264 -0.006205 -0.074886 0.065990 -0.060431 0.003626 -0.119481 0.010704 -0.025378 -0.064233 0.078419 0.023159 0.241194 -0.008924 0.704111 -0.002814 0.021879 0.005637 0.008935 -0.693511 0.013401 -0.044932 -0.499598 0.022783 0.031774 -0.085900 -0.086607 0.011517 0.027030 0.042257 -0.068926 0.009557 -0.044981 -0.138938 -0.121471 -0.013740 -0.049174 -0.077226 -0.007407 0.046228 0.010262 -0.012158 -0.028352 0.025246 0.102509 -0.014226 -0.010615 0.059473 -0.001304 -0.001899 -0.039105 -0.102739 -0.030593 -0.035198 -0.031826 0.049107 0.022648 0.075819 -0.024746 0.043102 0.182095 -0.030895 0.301059 -0.008082 0.004823 0.013241 -0.037859 0.448040 0.020923 0.006423 -0.229607 -0.005109 -0.020455 -0.043878 0.003769 -0.033894 -0.019919 0.031408 -0.006936 -0.019111 -0.036436 0.458304 -0.008648 0.028245 0.056314 0.047472 -0.029039 0.015217 0.003211 -0.029813 -0.024814 -0.024394 0.027185 -0.005964 -0.013200 0.018970 0.022221 -0.012723 -0.011317 0.068897 -0.030370 0.032675 -0.144491 0.033281 0.040630 -0.004180 -0.040300 0.015836 0.006080 0.031078 0.337806 0.025505 0.008003 -0.023746 0.023064 -0.454958 -0.000215 -0.025914 -0.027523 -0.020757 0.006521 -0.161251 -0.111547 -0.030076 -0.018213 0.035503 -0.035563 0.027199 0.001341 0.006603 -0.123734 -0.021073 0.039262 -0.015504 -0.017522 0.056563 -0.008684 -0.004672 -0.012860 0.015297 0.052567 -0.001096 -0.001279 0.028942 -0.024304 0.002378 -0.035760 -0.074432 -0.039681 -0.029168 -0.073567 0.030624 0.008919 0.015351 -0.006644 0.052317 0.031472 0.000914 0.182640 0.004775 -0.006953 0.012480 -0.017292 0.379833 0.009183 -0.011171 -0.080154 0.012017 -0.033926 -0.038009 0.030157 -0.008531 -0.018276 -0.027180 -0.003669 -0.031738 -0.031143 0.014272 -0.006299 0.000520 -0.001035 0.020060 -0.019763 -0.007951 0.034504 0.000794 0.006366 0.011604 0.083972 -0.019472 -0.012603 -0.017971 -0.037632 0.003422 -0.031073 0.036296 -0.025273 -0.029613 -0.067767 0.043063 -0.013476 0.002661 0.053343 0.056380 0.040875 -0.016083 0.176700 0.032555 -0.010965 0.005760 -0.003870 -0.082704 0.004629 -0.026222 -0.100949 -0.014549 0.001585 -0.026961 -0.048873 0.025748 0.043322 0.062042 -0.020488 0.004664 0.016592 -0.002422 -0.052601 0.036410 0.011394 -0.013670 0.011747 0.023911 -0.011556 -0.008302 0.003352 0.014423 0.022627 0.001075 -0.006567 0.027967 -0.029893 0.017994 0.000728 -0.062375 -0.007534 -0.023622 -0.032965 0.025376 -0.000952 0.011951 -0.008832 0.019077 0.036684 0.000529 0.054047 -0.009446 0.001814 -0.000278 0.006337 -0.019375 0.000557 -0.011216 -0.037711 0.006911 -0.019105 -0.047116 -0.003139 -0.017479 -0.011815 0.035224 -0.003092 -0.021938 -0.000599 0.054343 0.009557 -0.004670 0.017897 0.023449 -0.041196 -0.037466 -0.005088 -0.000567 -0.024443 -0.004637 0.069945 -0.011925 0.002368 0.017544 0.007831 -0.032124 -0.006144 0.043474 -0.011414 0.035157 -0.050602 0.003305 0.040188 0.018673 -0.041891 0.033463 0.007883 0.018669 0.094232 0.029184 0.015075 -0.005178 0.013980 -0.038969 -0.017300 -0.021362 -0.047364 0.006979 0.012634 -0.051596 -0.054562 -0.036424 -0.047715 0.020652 -0.007000 0.010243 -0.010201 -0.007737 -0.041078 -0.008423 0.031078 -0.002902 -0.007983 0.016277 0.001642 -0.004238 -0.005736 0.005891 0.032879 0.000866 -0.007353 0.028081 -0.018460 0.019672 -0.006574 -0.032949 -0.005083 -0.017926 0.015810 0.004967 -0.010337 0.001097 -0.005098 0.035986 0.009186 0.014284 0.035990 -0.019127 -0.010190 0.006487 -0.021886 0.067255 -0.015359 -0.030658 -0.027804 0.004568 -0.013340 0.002551 0.024083 -0.015737 0.002583 -0.000735 0.005498 -0.018101 -0.001017 0.031335 -0.018976 -0.009759 0.011633 -0.010105 -0.013810 -0.013746 0.023169 -0.020738 0.018089 0.008486 0.043471 -0.022125 -0.005439 -0.027798 -0.014074 -0.000201 -0.025488 0.025106 -0.013535 -0.018901 -0.034374 0.007194 -0.009809 0.002419 0.037024 0.025504 0.015873 -0.031006 0.040287 0.027433 -0.005827 -0.018382 0.012076 -0.073558 0.003137 0.018612 -0.006755 0.014947 0.002576 -0.068140 -0.041067 0.019768 0.008442 0.019405 -0.027039 0.002743 -0.002189 -0.044059 0.018343 -0.014784 -0.004074 -0.012496 -0.005630 0.001628 -0.007231 -0.004805 -0.002194 -0.001425 0.027569 0.004415 -0.008681 0.014170 -0.014567 0.020599 0.010872 -0.022814 -0.002164 -0.007034 0.008840 0.004424 -0.000242 -0.000411 -0.014212 -0.001795 0.011397 0.001041 0.010990 -0.007811 0.005280 -0.001288 -0.018594 0.031417 -0.006518 -0.004917 0.009356 -0.011774 -0.011401 -0.012763 -0.003337 -0.007978 0.005667 0.028973 -0.002448 -0.012735 0.007027 0.017667 0.006987 -0.002931 0.012830 0.005825 -0.011635 -0.006180 0.006299 -0.014316 -0.018126 -0.005867 0.084257 -0.000827 0.001591 -0.003890 -0.001148 -0.002217 0.008456 0.058391 -0.008140 0.020878 -0.050760 0.002249 0.045733 0.005711 -0.029508 0.017052 0.009841 0.008740 0.157948 0.026247 0.008496 -0.016298 0.009900 -0.153475 -0.011962 -0.007764 0.006558 -0.008974 0.000448 -0.115810 -0.031269 -0.023407 -0.019197 0.006602 0.024556 0.002103 0.000892 0.052767 0.000683 -0.001946 0.044770 -0.013986 -0.017235 0.004636 -0.003653 -0.007333 -0.009088 -0.006314 0.009967 -0.001430 -0.008786 0.013449 -0.015107 0.008751 0.006272 -0.030604 -0.016517 -0.017582 0.031296 -0.009747 -0.021639 0.008242 -0.002394 0.006179 0.015214 0.006573 -0.001002 -0.015385 -0.009244 0.005256 -0.007869 0.040371 -0.015714 -0.005956 -0.007107 -0.004843 -0.023358 0.016140 0.012421 -0.010469 0.001237 -0.003530 -0.002356 -0.013174 -0.001396 -0.004042 -0.009977 -0.004352 0.014285 
48
0.035503 0.062936 -0.410973 -0.641409 -0.439187 -0.120669 -0.203361 -0.108049 -0.375749 0.102045 -0.120167 -0.551360 -0.545135 -0.469276 0.228263 -0.070786 -0.570509 0.439064 -0.170393 -0.044646 0.025269 0.111749 -0.517707 -0.066955 0.164798 -0.161623 -0.323363 -0.286985 -0.439175 -0.175582 -0.246425 -0.074250 -0.662530 -0.309149 -0.167552 -0.161775 -0.068870 0.243195 -0.449636 -0.137061 0.089691 -0.321561 -0.308907 -0.402523 -0.263436 0.278382 -0.355920 -0.075537 
48 48
-0.007241 -0.011029 -0.185285 0.110311 -0.147133 -0.133200 -0.005935 -0.064129 0.013329 0.286694 -0.095437 0.130067 0.201586 0.089160 -0.032961 -0.116407 0.210164 0.138390 -0.189800 0.060812 -0.088540 -0.037990 -0.038006 -0.044939 -0.278164 0.018267 0.092105 -0.150439 -0.138940 -0.139812 0.141141 0.139705 0.058616 0.101775 0.077373 -0.007446 -0.179982 0.110453 -0.095846 -0.018750 -0.314050 -0.053938 -0.124175 0.051663 0.033026 0.050222 -0.050367 0.117863 0.033852 0.136598 0.210332 0.125292 0.029533 -0.040039 -0.075034 -0.035208 0.111572 -0.054254 -0.049121 -0.172639 -0.137407 0.071270 -0.013174 0.177673 -0.066018 0.052837 0.034018 0.314641 0.055885 0.106783 -0.021111 -0.223288 0.158970 0.140033 -0.028050 0.111614 -0.250925 -0.138322 0.240303 -0.037874 0.176254 0.098896 0.181547 0.039473 0.057809 0.188686 -0.355107 -0.076914 0.400359 -0.073872 -0.023076 -0.134605 -0.102610 0.013657 -0.031638 -0.132277 -0.162118 0.095670 -0.153918 -0.073763 -0.027184 0.259940 -0.037269 0.014284 0.038788 -0.016150 0.045227 0.051515 -0.008518 -0.013738 -0.012143 -0.156580 0.107151 0.123007 0.191152 0.053659 0.075855 0.096994 0.016789 -0.239486 0.071203 -0.176200 0.026531 -0.041990 0.205447 -0.043514 -0.039226 0.104028 -0.122359 -0.141704 0.012039 -0.094608 -0.068462 -0.007853 -0.272635 0.110217 -0.118774 -0.280154 -0.162138 -0.053254 0.138593 0.066059 -0.034392 0.102763 0.021121 0.036733 0.045511 0.012892 -0.313746 -0.070446 0.290147 -0.029530 0.088221 0.257633 0.107859 0.064352 0.200044 0.139869 -0.026700 -0.067312 0.070209 -0.167677 0.041449 0.280357 -0.157748 -0.171557 -0.046401 -0.244524 -0.312086 -0.202186 -0.208144 -0.187117 -0.003528 -0.486934 0.250259 0.085564 0.433030 -0.143201 -0.103399 -0.201035 -0.009334 0.214781 0.034495 -0.112428 -0.129188 -0.264222 0.070602 0.158425 0.035505 0.111284 -0.270676 0.035870 -0.057593 -0.154499 0.081955 -0.049666 -0.198057 -0.142759 0.249778 0.024794 0.177696 0.141769 -0.033838 0.160007 -0.066588 0.170412 -0.039292 -0.061384 0.012083 0.087612 -0.102109 0.044638 -0.026360 -0.193360 0.028436 -0.187219 -0.050736 -0.046476 -0.100850 -0.081746 -0.101266 -0.201077 -0.042104 0.066999 0.293512 -0.380373 -0.094408 -0.178470 0.021921 -0.016702 -0.065189 -0.075713 -0.048420 -0.017132 0.056982 0.377743 -0.076649 0.101743 -0.108352 -0.279278 0.006170 0.155391 0.131679 0.172970 0.018451 -0.105923 0.042670 0.113508 0.062161 0.215064 0.067416 0.070994 -0.080861 0.113565 0.199642 -0.171318 -0.109079 -0.094301 0.069421 0.136202 0.103377 -0.005417 0.112880 0.058049 0.039945 -0.015250 0.160571 0.034119 0.017813 -0.178696 0.324839 0.043333 -0.058678 -0.092244 -0.001176 -0.123443 0.057053 -0.194489 0.010546 0.104405 0.071694 -0.030571 0.027304 0.091807 0.147914 -0.032514 -0.079841 -0.120698 0.007154 -0.073575 0.006491 0.107394 0.021110 0.035420 -0.005394 0.069667 0.033211 -0.044436 -0.151300 -0.000487 0.159418 -0.168916 -0.071333 0.100874 0.011743 0.133399 -0.062684 0.010557 -0.076472 -0.008540 -0.030467 -0.114013 -0.108508 0.020510 0.150129 -0.040826 0.189722 0.076198 0.107755 -0.150811 -0.250964 0.073902 -0.050516 -0.099005 -0.039595 0.210079 0.034185 -0.293523 -0.074838 0.136494 0.105801 0.000290 0.040608 0.051202 0.031155 -0.131979 0.029229 -0.041951 0.060781 0.111068 -0.057931 0.061800 -0.141234 0.035375 -0.031191 -0.080120 -0.036348 -0.019298 -0.164435 0.151108 0.018264 0.105011 0.059736 0.166568 -0.115065 0.222457 -0.130191 -0.025308 0.018664 -0.194223 -0.052288 -0.139951 -0.089171 -0.023948 -0.048755 -0.093912 0.137601 0.016608 -0.157241 -0.177580 -0.151953 -0.055114 0.130464 -0.029026 -0.338630 0.028017 0.180384 -0.152578 0.000246 0.035735 -0.085571 0.078083 -0.028311 -0.280535 -0.048712 -0.102072 -0.148030 -0.011335 -0.087807 -0.062744 0.049836 0.070608 0.009868 0.125415 0.092299 0.039833 0.347564 -0.200076 0.004924 0.093791 -0.054577 -0.090507 -0.036261 0.144893 -0.116490 -0.085033 -0.009249 -0.093721 0.117649 0.037803 -0.099795 -0.102340 -0.117712 -0.098750 0.123341 -0.056024 0.178812 -0.030291 -0.312994 0.111518 0.049694 -0.016412 -0.035256 -0.077298 -0.113076 0.088632 0.123164 0.174120 -0.169343 -0.039330 -0.253068 0.250207 0.080256 -0.240437 0.125511 0.141987 0.031765 0.071307 -0.042987 0.041698 -0.061073 -0.102616 0.379253 -0.207069 -0.030126 -0.283340 -0.264445 0.011967 -0.251011 -0.169527 -0.022127 0.036303 0.054492 0.122500 0.068835 0.050369 0.251132 0.096839 0.139200 0.165526 0.033206 -0.134119 0.024888 -0.039681 -0.063691 0.227295 -0.132002 -0.046010 0.289037 -0.113297 -0.076707 -0.077230 -0.129873 -0.025885 0.014049 -0.051699 -0.119906 0.067791 -0.088036 -0.183964 0.163272 -0.055363 0.161150 -0.068586 0.110972 -0.127196 0.142027 -0.136417 -0.049838 0.306364 0.117272 0.037161 -0.315077 -0.059641 0.153574 0.087889 -0.094679 -0.214024 0.039458 0.228726 -0.062577 0.012118 0.025778 0.110498 0.125271 -0.061462 -0.290188 0.114369 0.208962 -0.103025 0.243475 -0.137670 0.047263 -0.154218 0.127912 -0.073109 0.007093 -0.115967 -0.141234 0.148626 -0.098118 -0.005393 -0.086256 0.064245 -0.044564 0.025675 0.009428 0.044334 0.158940 -0.111223 -0.196431 0.108202 -0.167453 0.113854 0.150941 0.050542 -0.094277 0.094649 0.202632 0.061291 0.071134 0.162144 -0.167671 0.022659 -0.013244 -0.105785 0.025503 0.090364 -0.073658 -0.113236 0.107623 -0.025168 -0.122573 -0.099402 0.025843 0.022480 -0.041605 -0.077061 0.223718 -0.252471 -0.016251 -0.005620 -0.218295 -0.096617 0.096451 0.211233 0.031838 -0.087230 -0.282610 -0.245364 0.069485 -0.009280 0.025957 0.086808 -0.194475 -0.120272 -0.047982 -0.273213 0.041911 -0.041465 -0.045338 0.130602 0.103115 0.186209 0.096223 0.067849 -0.026081 0.109264 -0.025690 -0.024036 -0.093239 -0.036820 0.078822 0.128941 0.009697 0.128444 -0.067774 -0.159348 -0.180780 -0.051926 -0.105686 -0.076504 -0.025387 -0.207882 -0.194650 0.071231 0.220848 -0.247386 0.180240 -0.017736 -0.243210 0.046969 0.040843 0.095229 -0.070075 -0.145645 -0.060781 0.052110 0.131455 0.203021 0.051384 0.022698 -0.134893 -0.044505 0.096882 -0.070494 -0.251475 0.099119 -0.140505 0.257176 0.134733 0.001928 -0.149006 -0.026625 0.234453 0.010970 0.048746 0.033725 0.002276 -0.136834 -0.061159 0.009598 0.168898 0.013793 0.138307 0.052254 0.121782 -0.119327 -0.244504 -0.162442 0.065212 -0.009705 -0.026728 -0.178697 0.146693 0.071785 0.071717 -0.121802 -0.085374 0.035235 0.074176 0.052424 0.082922 0.119264 -0.232505 -0.530461 -0.128681 -0.148114 0.116791 0.013660 -0.138654 -0.057090 -0.094089 -0.012509 0.192271 -0.139897 -0.069978 -0.120619 -0.056981 -0.073699 -0.042034 0.090944 -0.029358 -0.050965 0.141962 0.220335 0.094700 -0.158125 0.122542 0.118765 -0.092218 0.063606 -0.042355 0.032539 -0.045346 0.049298 -0.025573 0.032768 -0.094572 0.018909 -0.136224 -0.037859 -0.121587 0.118809 -0.083409 0.166990 -0.017335 0.020024 -0.036733 -0.083988 0.167165 0.014672 0.121391 -0.020754 -0.128493 0.112562 -0.126350 0.013429 0.130477 0.032634 -0.036042 -0.191564 -0.312329 0.131460 -0.267299 0.108333 0.043826 -0.033109 -0.063867 -0.203450 0.128211 -0.124279 0.019439 0.112872 -0.011515 -0.188365 -0.029659 0.037927 -0.040624 -0.109285 0.000412 -0.009579 0.110246 -0.073680 0.159075 -0.003751 0.234994 -0.078782 -0.018303 -0.027526 -0.078290 0.182743 0.034649 0.064723 -0.027893 -0.039094 0.065485 -0.194871 0.048664 -0.019535 -0.230206 -0.032879 0.053763 0.055624 -0.186533 -0.012898 -0.036706 0.032840 0.202432 0.162017 -0.123887 -0.033041 0.061243 -0.126813 -0.098872 0.426487 -0.006718 0.224515 -0.126201 0.235655 0.037728 -0.288392 -0.245650 0.262033 -0.004656 -0.053265 -0.009029 -0.061613 0.052799 0.153490 -0.117902 0.036294 0.049997 -0.111289 -0.118155 0.054188 0.205208 0.112416 0.124358 -0.244731 -0.075583 -0.040011 -0.165289 -0.071118 0.050685 0.204551 -0.307854 -0.107793 -0.052096 0.095686 0.084652 -0.168232 0.324381 0.009226 0.064838 -0.155274 -0.048016 0.191691 -0.003350 0.072959 -0.035099 -0.030398 -0.137658 -0.108632 -0.075232 0.097898 -0.052452 0.154170 -0.047424 0.002541 0.010197 -0.144137 0.018138 -0.050366 -0.050005 0.183189 0.131772 -0.000148 0.012163 0.105876 0.059918 0.043446 0.040562 0.067163 -0.044292 -0.066598 -0.004503 0.012254 -0.022766 0.176004 0.032377 0.131853 -0.082921 0.242781 0.071301 -0.015633 -0.023664 0.079899 -0.133843 -0.008647 -0.028304 0.020789 -0.070077 0.017359 0.025949 -0.351110 0.074780 0.066252 -0.070117 0.093143 0.046479 0.083096 0.017724 -0.016052 0.075056 -0.191520 -0.012383 -0.005353 0.062585 0.033758 0.033860 0.014343 -0.013015 -0.009730 -0.033013 0.159598 0.046552 0.099333 0.134843 0.205035 0.219541 -0.057543 -0.127865 -0.067552 0.105440 0.121399 0.111348 0.020240 0.000867 -0.007610 0.144052 0.019521 0.076583 -0.208026 -0.015525 0.100778 0.066126 0.044735 0.025622 0.059876 -0.079661 -0.094396 0.041106 -0.029073 0.358607 0.101344 -0.044309 -0.240260 0.017476 -0.064851 -0.030314 0.452767 -0.112235 0.040500 -0.026318 -0.014671 -0.069853 0.119459 0.009866 -0.049636 -0.023276 0.110673 -0.017564 -0.051442 -0.005523 -0.009116 -0.096309 -0.018691 -0.241740 0.102677 0.243452 -0.125580 0.069036 0.000452 0.091872 -0.152843 0.025702 -0.182099 -0.101885 0.214565 -0.172328 -0.051823 -0.032358 0.049494 -0.078401 0.028828 0.004182 0.112637 -0.007896 -0.235327 -0.073811 -0.109579 -0.358988 0.080284 0.000858 0.123623 0.059410 -0.112733 0.018623 -0.024727 -0.055025 -0.007309 0.174434 0.069449 0.056585 -0.242008 0.230402 0.116763 -0.032554 -0.037964 -0.069828 -0.029450 -0.055751 0.017590 -0.224654 -0.046774 0.261498 -0.146541 -0.011614 -0.160705 0.004532 0.220471 0.151411 -0.081214 0.113355 -0.146885 -0.109685 -0.089420 0.018391 0.070853 -0.414951 -0.109876 -0.034226 0.033974 0.062018 0.040444 -0.088365 0.211807 0.034186 -0.031691 0.164171 0.019914 0.000133 0.023605 -0.049781 -0.067552 -0.117358 0.114394 0.009666 -0.064747 0.008793 0.104786 -0.069363 0.080727 -0.044452 -0.098840 0.082432 0.271219 -0.009989 -0.047816 0.094988 0.055787 0.129105 0.012807 -0.169136 0.153745 -0.001520 -0.216966 0.004010 -0.007399 -0.045716 0.038263 -0.079626 0.059919 0.174747 0.017027 -0.274808 0.157409 -0.058330 -0.023884 -0.226584 -0.097874 -0.082286 0.092781 -0.213968 -0.191297 -0.024764 -0.021420 0.003476 -0.010150 -0.003731 0.091013 0.201601 0.170507 -0.081314 0.286504 -0.040981 0.029902 -0.148291 0.053035 0.050001 0.192528 0.051913 -0.013775 0.004586 0.255015 -0.149611 -0.059304 0.093344 0.068489 -0.020374 -0.098857 0.101197 -0.002763 0.018761 -0.009200 0.310909 -0.087413 0.119238 -0.213241 -0.103966 -0.182739 0.042782 0.062486 0.040854 -0.053981 0.065230 -0.162660 0.032572 0.150789 0.080552 -0.004845 -0.197823 -0.055573 -0.033718 0.131412 -0.212101 0.212270 -0.119460 0.197659 -0.040364 0.039809 -0.060527 0.122560 -0.213849 0.022394 0.131542 0.078364 -0.026249 0.009999 0.149146 0.120566 -0.111788 -0.152059 -0.045425 0.020044 0.035355 0.097225 -0.054098 -0.048930 0.300215 -0.061056 0.017190 -0.108260 0.041007 0.055216 0.034727 -0.075798 -0.116856 -0.037498 -0.156347 -0.017562 0.025873 0.016056 -0.330279 0.044744 -0.071626 0.013394 -0.113858 0.008020 0.063902 0.037704 0.015105 -0.057347 0.030603 -0.013850 0.152888 0.006980 -0.037654 -0.137063 -0.039685 0.237798 0.124134 -0.036438 0.072406 -0.056433 -0.012994 0.066702 -0.009496 0.066686 0.113741 0.147009 -0.011218 0.049509 -0.046165 0.277220 0.053421 0.016592 -0.037062 0.046753 -0.129303 -0.036970 0.122773 -0.135449 -0.102113 -0.042040 0.002956 -0.159329 -0.087308 -0.013570 -0.225400 0.157359 -0.394885 -0.078396 -0.296558 -0.085214 0.098178 -0.010219 -0.129116 0.089478 -0.042936 0.090746 -0.152711 0.141908 -0.027650 0.252144 -0.058292 0.072788 0.044090 -0.123391 -0.116672 0.053708 -0.061482 -0.111768 -0.047590 -0.080838 0.153275 0.052529 0.079605 -0.027980 0.018793 -0.041319 -0.046462 -0.310313 -0.013264 0.021170 0.322912 0.005466 0.120850 -0.035332 -0.036420 0.188033 -0.039937 -0.114053 0.062279 -0.100252 0.032349 -0.182800 -0.165012 0.033893 -0.137891 -0.040124 -0.064303 0.042810 -0.063745 0.068803 -0.075476 0.098815 0.066620 0.173058 0.022114 0.069953 0.106546 0.045742 0.074321 -0.011179 -0.012781 0.375139 -0.233776 0.028222 -0.192292 0.182512 0.107971 -0.057146 0.076048 -0.053451 -0.076921 0.054804 0.152875 -0.130521 0.023492 -0.052353 0.201696 -0.038620 -0.103853 0.002548 0.000772 0.209186 0.298063 -0.098682 0.139423 -0.020114 0.250075 0.074077 -0.306934 0.324926 -0.092503 0.097263 0.128207 0.016682 -0.103274 -0.056334 0.012292 -0.018068 0.028132 -0.201284 -0.052181 0.033263 0.027905 -0.027806 0.029210 0.048440 0.022406 0.132067 -0.058407 0.109134 -0.197511 -0.098821 -0.135829 -0.059943 -0.115667 0.130087 0.089824 0.045475 -0.098234 0.011806 0.058661 -0.134116 -0.003340 -0.112918 0.159360 0.053504 -0.156991 -0.090538 -0.273523 0.071974 0.259119 -0.034647 0.141889 0.004442 -0.093139 -0.036198 0.098532 0.129087 -0.215503 -0.520713 0.010501 0.097403 0.198051 0.066856 0.158339 -0.066557 0.008362 -0.157214 0.114536 0.096511 0.178398 -0.127550 -0.109919 0.206631 0.245528 0.126137 -0.000339 0.289915 -0.089372 0.075832 -0.079587 0.042326 0.196473 -0.062329 0.075359 -0.032279 -0.024363 0.097422 -0.179438 -0.052885 0.153658 0.016226 -0.214536 -0.099001 -0.002049 0.002934 0.165541 0.004781 0.285665 -0.024634 -0.005484 -0.209154 -0.217589 -0.109249 0.013123 0.125281 -0.140413 0.211316 0.270567 -0.101477 0.151710 0.081272 0.097817 -0.056603 0.015697 -0.021473 0.047420 -0.074157 -0.033335 -0.055190 0.013622 0.155883 0.072148 0.019502 -0.147703 0.070081 0.103264 -0.065809 -0.121980 -0.130791 0.108317 -0.120077 0.000938 0.054771 -0.048868 0.070075 0.105284 -0.029858 -0.040508 0.108224 0.174156 -0.071259 0.070143 0.013290 -0.244455 0.205731 0.210706 -0.009663 0.023904 -0.066613 -0.101436 -0.018422 -0.007960 -0.036594 -0.051496 -0.055623 -0.008596 -0.164226 -0.046127 -0.030587 0.091181 -0.184679 0.088705 -0.173218 -0.016040 0.803036 -0.081587 0.047889 -0.054025 0.118451 0.022911 0.030796 0.041894 0.021338 0.025811 0.008566 -0.019318 0.076959 0.121781 -0.003011 -0.130651 0.017635 0.083931 0.075748 -0.020501 -0.000927 0.053382 0.058949 0.105179 -0.009098 -0.043787 0.015027 0.256897 0.016910 0.159705 -0.040961 -0.137553 0.002032 -0.066315 -0.136036 -0.062071 -0.103330 0.191356 0.182651 -0.052227 -0.010119 0.059066 0.060517 0.120645 0.025653 0.015108 0.043368 -0.060710 -0.279995 -0.156825 0.069231 0.100395 0.054041 0.175306 0.098685 -0.123352 0.135889 0.126034 0.010025 -0.100492 -0.062242 0.062599 -0.011456 -0.090614 0.144473 -0.043727 -0.038259 -0.014139 -0.108251 -0.058717 0.111637 0.295512 0.077503 0.161362 -0.135338 -0.069038 0.116017 0.054389 -0.042760 0.107885 -0.068597 -0.124738 0.062080 0.065974 -0.085718 0.038560 -0.015581 -0.138128 0.218290 0.022012 0.096938 0.076377 -0.097928 -0.146652 0.145680 -0.076553 0.111159 0.079500 -0.148655 0.103029 0.001761 -0.028496 0.046599 0.059555 0.117495 -0.277225 0.036357 0.020330 0.257490 0.027417 0.099345 0.034496 0.098378 0.219460 0.391238 0.043501 -0.142608 -0.125740 -0.375504 0.017557 -0.247862 -0.308155 -0.015458 0.034093 -0.121800 -0.084098 0.057841 0.244045 -0.069549 0.141500 -0.026849 -0.034991 0.110315 -0.401207 -0.030143 0.260468 -0.466369 0.028727 0.002644 -0.035697 -0.028511 -0.125275 -0.012618 -0.039007 0.116182 -0.161615 0.044966 -0.012331 0.106676 0.094958 0.015686 0.045668 0.178704 -0.124032 0.022404 -0.062742 0.126323 0.040560 -0.086663 -0.022942 0.088914 -0.087442 0.261178 -0.105843 -0.063357 0.016450 0.017062 -0.115436 0.023206 0.015238 -0.073621 0.107585 -0.078012 0.220975 0.011347 0.172658 -0.057649 0.085683 0.063588 -0.270667 0.233296 0.081694 0.028773 0.041084 -0.064656 0.057548 -0.037055 0.148296 0.040831 0.080419 0.100928 0.200651 0.223488 0.033810 0.134641 0.003807 0.157245 -0.017600 0.093545 -0.048035 0.119881 0.221248 -0.021069 -0.082933 -0.072093 -0.009443 -0.021232 -0.153539 -0.129408 0.007717 0.039110 0.030242 0.171286 0.109483 0.080363 0.144055 0.023336 0.018393 0.092814 -0.039216 0.106231 0.188627 -0.122390 -0.131438 -0.045155 -0.186215 -0.058894 0.018088 0.075650 0.018271 0.003111 0.118420 -0.088221 -0.146581 -0.151887 0.072670 0.064701 0.041911 -0.199750 0.089172 -0.113822 0.159291 0.257795 0.139169 0.229468 0.044268 0.078292 0.115054 -0.143047 0.280051 -0.157912 -0.267926 0.062511 -0.133725 -0.029342 -0.192461 -0.024746 0.033774 0.015420 0.208892 0.063237 0.030774 0.229538 0.240018 0.299075 0.124508 -0.038519 0.258260 0.166564 0.082535 -0.035588 -0.150495 0.091765 -0.103769 0.000644 0.154118 -0.110762 0.065869 -0.132354 -0.073281 0.225240 -0.095217 -0.065590 -0.059365 0.203717 0.088340 -0.082377 -0.019022 -0.020602 -0.064550 0.162961 0.015923 -0.062251 -0.069896 -0.035928 0.053193 0.137329 -0.071547 -0.025789 -0.116345 0.170653 -0.093475 0.000329 -0.010495 0.028907 0.061963 0.111903 0.013996 -0.110200 -0.013948 -0.032002 -0.019984 -0.049375 -0.008388 0.129560 -0.115083 -0.002635 -0.160126 0.009299 0.105300 -0.028547 0.084081 0.057963 0.076854 -0.072851 -0.170425 -0.227833 -0.062025 -0.215351 -0.092008 0.063974 -0.149298 -0.001963 -0.160996 -0.192254 -0.046837 -0.014246 0.243628 0.128782 0.124466 -0.213870 -0.046255 -0.000899 0.066372 0.101813 -0.015711 -0.134621 -0.132740 0.208462 -0.014625 0.011494 -0.081816 -0.254229 0.034272 0.216594 0.058361 -0.066319 0.084565 0.032971 0.173993 0.133195 -0.146172 0.120668 0.031469 -0.022361 0.221530 0.029528 0.192066 -0.044639 0.204021 -0.068064 -0.095875 0.034223 -0.200189 -0.102277 -0.090544 0.076885 0.112731 0.129974 0.077566 0.056230 -0.113865 -0.044677 -0.066975 0.176548 0.159863 -0.050739 -0.080050 -0.057051 -0.140285 0.017456 0.002328 0.036649 -0.124403 0.111845 0.170184 -0.240356 -0.170024 0.278501 0.146242 0.103576 -0.030793 -0.064925 0.049661 -0.030067 -0.128373 -0.084665 -0.265030 -0.043054 -0.135826 0.081142 0.220851 0.021195 0.113899 -0.111316 -0.098211 0.083479 -0.077683 -0.335842 -0.010610 0.165335 -0.152291 -0.231060 0.030962 0.057222 0.197670 -0.006290 0.072685 0.075929 0.032522 -0.316097 0.374443 0.274937 0.016700 -0.145487 -0.121961 0.117479 -0.017368 0.179555 0.036399 0.540353 -0.105255 0.178314 0.031412 -0.212574 0.114291 0.206229 0.092707 -0.084297 -0.182793 0.069281 -0.174523 0.173201 0.004208 -0.028521 -0.127200 -0.142049 -0.168173 0.052281 0.121638 -0.026268 0.187228 -0.152094 -0.060242 -0.107617 -0.091862 -0.011017 -0.599396 0.338895 -0.170878 0.292447 -0.020168 -0.017848 -0.023569 -0.021905 0.229440 -0.024939 0.198162 0.032882 0.064318 -0.089849 -0.187783 0.053669 0.035187 0.145562 0.004233 -0.104951 -0.101420 -0.172868 0.314748 -0.126975 -0.017894 -0.143666 0.088821 -0.205862 -0.141631 -0.003280 0.020361 0.081498 0.006619 0.069376 0.108671 0.100842 -0.175538 0.036203 0.051913 0.056392 -0.103190 -0.206949 0.132463 0.028922 0.054098 -0.128121 -0.197248 -0.041242 0.124277 -0.031290 0.189496 0.087155 -0.324745 -0.085443 -0.187367 -0.045962 0.119119 0.038340 -0.214150 0.108208 -0.099270 0.109106 0.087812 -0.278055 -0.230241 0.140233 0.097897 0.224401 0.073118 0.074369 0.015416 0.236964 0.032047 -0.180765 -0.010423 0.391853 0.083190 -0.003590 -0.239640 0.052663 -0.113405 0.014291 0.054399 -0.180398 -0.141868 -0.080240 -0.146006 -0.025778 0.095839 -0.063477 0.036606 0.068335 -0.152731 -0.032190 -0.161708 -0.244999 0.003987 0.143815 -0.073446 0.108785 0.120503 -0.092119 0.103277 -0.010445 0.154704 0.066532 0.079916 -0.244797 -0.208888 0.211753 0.131908 -0.191166 0.009769 -0.141724 -0.006942 0.038197 -0.025549 0.045710 -0.432192 0.173180 0.240414 0.123402 0.191741 -0.064806 0.473166 0.204925 -0.126740 -0.005640 -0.267891 -0.052735 -0.099615 -0.105733 -0.437643 -0.130914 -0.118117 -0.005768 0.091339 -0.198634 -0.085840 0.233968 0.058085 -0.057335 0.064229 -0.174241 -0.287214 0.076405 -0.193663 0.215858 0.150564 0.006003 0.148059 -0.027777 0.120507 -0.122625 0.146753 0.007009 0.111243 0.147344 0.358872 -0.142545 -0.050734 0.006844 -0.241060 0.177477 -0.011599 -0.052059 0.198124 -0.079920 -0.097352 -0.132549 0.034526 -0.068973 -0.021300 -0.054643 -0.046767 0.099725 0.012088 0.082371 0.061454 0.061008 0.061135 0.035077 -0.177285 0.056717 0.017586 -0.147677 0.003587 0.012733 -0.071364 0.109625 -0.207023 -0.126825 0.416652 -0.028045 -0.386259 0.052580 0.302687 -0.058743 -0.022127 -0.076525 0.011506 0.021648 -0.107019 -0.360437 -0.003538 0.342029 -0.011127 0.035183 -0.034879 0.288841 0.082607 0.032367 -0.102988 -0.102419 0.046752 -0.063316 -0.111145 -0.073614 0.044987 -0.019278 -0.022316 0.083655 0.246685 -0.083453 0.074808 -0.009529 -0.003616 -0.046649 0.075746 -0.093874 0.133699 -0.051661 0.035725 -0.026070 0.184125 0.038430 -0.147353 -0.182851 -0.122218 -0.098861 0.061901 0.039224 0.100367 -0.066823 0.045243 -0.092939 -0.052659 0.024860 0.006175 0.036923 -0.066479 0.074211 -0.070696 -0.021177 0.039417 -0.073595 0.123811 -0.067603 -0.042806 0.022626 -0.036881 0.016020 0.108043 -0.006766 0.019700 -0.083254 0.195563 0.001313 -0.029551 0.004985 0.043109 -0.208860 -0.080740 -0.017942 -0.065290 0.190586 -0.045347 0.186632 0.081483 0.198493 -0.130253 0.170261 0.163474 0.059249 0.171837 0.286637 0.023449 0.034616 -0.115792 -0.201367 -0.004530 0.084905 -0.086090 0.085797 -0.004299 -0.085120 -0.017470 -0.039989 0.003241 0.036496 0.074853 0.320501 -0.001681 0.072052 0.024024 0.214223 0.030231 0.145672 0.079468 0.140843 0.013012 0.129769 0.103262 -0.082180 0.010176 -0.217196 -0.000156 0.032212 -0.152113 -0.021336 -0.095346 0.056691 0.032791 0.008352 -0.301962 -0.042776 0.004342 -0.029561 0.244327 -0.121334 0.310556 0.030744 -0.182037 -0.201945 -0.191599 -0.075617 -0.242100 0.041897 -0.044410 0.222683 0.110491 -0.043116 0.129168 0.046327 0.093575 -0.003816 0.088455 0.013904 0.071925 0.100859 0.331722 -0.030544 0.021604 -0.024975 -0.052761 -0.049929 -0.005403 0.280035 -0.001677 0.042955 -0.338402 0.145476 -0.027378 0.278083 0.011597 -0.183886 0.090580 0.106958 -0.075228 -0.054903 0.045612 -0.099578 0.261173 0.031694 -0.176131 0.106109 0.347317 -0.038215 0.050800 -0.141664 0.061225 -0.076704 0.091302 0.016306 -0.110421 0.211056 -0.401429 0.067157 0.079814 -0.067213 -0.101131 0.036449 -0.008390 0.030207 -0.091106 -0.147390 
48 48
0.481198 -0.101661 -0.137623 -0.017377 -0.010173 -0.123242 0.088233 -0.414635 -0.092014 0.329293 -0.252144 0.168779 0.092527 -0.037271 0.174489 0.027416 0.397729 -0.139553 0.064552 0.001817 -0.063852 0.263733 -0.376714 -0.098732 0.080364 0.325107 -0.373783 -0.284879 -0.327096 -0.625553 -0.078525 -0.069929 0.386593 -0.229111 -0.217707 -0.279210 0.652095 0.341334 0.258008 -0.471891 0.119508 -0.156065 -0.290899 -0.388111 -0.000760 0.101907 -0.105222 0.615477 -0.198953 0.657902 0.096981 -0.126153 -0.213026 0.293692 -0.163231 0.246431 -0.282858 -0.140547 0.141317 -0.348771 -0.047802 0.042106 -0.123173 0.015050 0.092484 0.062610 0.014414 0.090876 0.030412 -0.223336 -0.099846 -0.162056 0.407302 0.225040 -0.083996 -0.077114 -0.028600 -0.086217 -0.382831 0.341956 0.457040 -0.174287 -0.060584 0.061935 -0.077253 -0.520535 -0.211605 0.233918 -0.096263 -0.334723 -0.050025 0.068561 0.007423 0.075359 -0.040236 -0.188585 0.826674 0.253610 -0.017497 -0.444985 0.516715 0.770963 0.225857 0.229353 0.051240 0.027863 -0.020586 0.368675 0.249944 -0.261170 -0.459210 -0.253967 0.583066 0.421715 -0.345530 0.188753 -0.179246 0.507898 -0.198926 -0.141316 -0.219748 -0.239969 -0.070221 -0.357628 0.511604 0.600505 0.206139 -0.355622 0.060245 0.229008 0.027769 0.042605 -0.490720 -0.026573 0.552926 -0.267064 -0.837559 0.060251 0.343768 0.012855 0.487248 -0.666753 -0.017782 0.232909 -0.737311 0.262548 0.058173 -0.183605 -0.533876 0.591400 -0.052418 0.040831 -0.078859 0.291700 0.115042 -0.385669 -0.177052 -0.540731 0.263970 0.328377 0.565332 0.106923 -0.180893 -0.280573 0.051547 0.242371 -0.053816 0.067820 0.117842 0.243157 -0.436891 -0.415811 -0.235253 0.314329 0.188609 0.332478 0.226834 0.467115 0.074895 -0.005223 -0.284092 -0.031640 -0.195908 0.369847 0.589195 0.201771 0.217716 -0.055795 -0.323065 -0.612265 -0.413706 0.594163 -0.137498 0.207206 -0.065366 0.027371 0.706743 0.175742 0.253215 0.092787 -0.172030 -0.134691 0.274624 0.200567 0.213554 -0.256264 0.251832 -0.135080 0.262354 0.161194 -0.556143 -0.267352 -0.514512 0.016799 -0.002459 -0.158123 -0.129742 -0.146697 0.165087 -0.251539 0.280832 -0.075350 -0.145607 -0.056332 0.101756 0.133039 -0.270673 -0.219622 -0.229893 0.110216 -0.037646 -0.279491 -0.018783 -0.276710 0.328716 0.112186 0.275167 -0.086747 0.054525 0.221817 -0.281554 0.008411 0.803976 -0.000331 0.144642 -0.255419 -0.005157 -0.200519 0.212590 -0.185933 -0.105887 -0.039027 -0.068003 0.159633 -0.043722 0.476458 0.043352 -0.206714 -0.365327 0.413550 0.387356 -0.273131 0.114946 -0.112516 0.126642 0.176662 -0.350779 0.101450 -0.196971 -0.489745 -0.419394 0.327158 0.799732 -0.445888 0.159762 -0.098267 -0.268359 -0.335533 -0.609590 -0.286587 0.021580 -0.684203 0.223216 0.096096 -0.439001 0.262515 -0.112125 0.151683 -0.076333 0.133378 0.092610 0.126032 0.075829 -0.309658 0.271403 -0.192174 0.117597 -0.304621 -0.159007 0.241138 -0.288042 0.009086 -0.442675 0.233421 -0.031931 -0.357310 -0.082881 -0.149229 0.223785 0.034205 -0.058560 0.211441 0.200860 0.458216 0.195811 0.014117 -0.593754 -0.172057 -0.375750 0.115298 0.035466 -0.060662 0.198858 -0.061208 -0.092621 -0.265228 -0.414312 0.255785 -0.003069 -0.012852 -0.270008 -0.189797 0.232793 -0.052286 -0.327023 -0.023990 0.048423 0.190077 0.133936 -0.233330 0.151248 -0.015685 -0.008091 -0.180554 -0.020452 0.169508 0.197648 0.330004 -0.252081 0.171618 0.032366 0.455149 -0.030976 0.043760 -0.205823 0.125613 0.119414 -0.165671 0.132324 -0.016769 -0.164653 0.087419 -0.146745 -0.066764 -0.055439 -0.234315 -0.204930 -0.038976 0.056541 -0.000490 0.461900 0.009410 0.293372 0.130094 0.069477 -0.070624 -0.042618 -0.010502 -0.341965 -0.050400 0.272279 0.127033 0.261767 0.410703 -0.138131 0.250058 -0.566877 0.259289 -0.599813 0.153186 -0.044576 0.505035 0.911283 0.390455 0.041775 -0.287458 0.088407 -0.547017 0.337115 0.003329 -0.458799 -0.326355 -0.503605 0.503460 0.156991 0.212480 -0.654826 0.183672 -0.042392 0.333161 0.086055 0.749907 -0.482722 0.001344 0.044753 0.516276 0.310968 0.020169 -0.265716 0.073349 0.007741 -0.289107 0.080339 -0.020705 0.419807 0.002959 0.095619 -0.477933 0.034607 -0.052354 0.126200 0.116663 -0.199056 0.271803 -0.269985 0.242860 -0.599478 -0.326673 -0.231831 -0.222182 -0.173923 -0.537700 0.400792 -0.300214 -0.055355 0.091676 -0.214696 -0.216280 0.268668 -0.284618 -0.169564 0.081978 -0.013266 -0.061441 -0.075575 0.239348 0.305252 0.222515 0.173877 0.052988 -0.483359 -0.513092 -0.573525 0.855631 -0.031078 -0.078376 -0.990649 0.008994 -0.688665 -0.138828 -0.296416 0.076363 0.069983 0.100627 -0.427890 -0.496974 -0.095270 0.350254 -0.000910 0.049187 -0.134967 0.214267 0.091577 -0.056453 0.188663 -0.155328 0.019938 0.539725 -0.140637 0.386908 -0.554986 -0.002783 0.003445 -0.335705 0.174029 -0.083233 -0.233482 -0.079973 0.371484 -0.315751 0.256507 0.349744 -0.280199 0.190488 -0.104082 0.752332 -0.116909 -0.415818 0.087393 0.386470 -0.360080 -0.469984 0.003521 0.151451 -0.126743 0.055748 -0.084252 0.218534 0.062642 0.329332 0.166430 0.743745 0.406654 -0.229129 0.160736 -0.061905 0.222909 0.205744 0.107992 -0.624750 0.081605 0.120540 0.048724 -0.130297 0.063976 -0.134595 -0.079455 0.062451 0.056198 0.236436 -0.068275 0.313708 -0.110139 0.037903 -0.452679 -0.269062 0.513969 -0.234104 -0.092468 0.270209 0.228414 0.028217 0.110180 0.215960 0.201868 0.486270 -0.177679 -0.214494 0.125054 0.297316 -0.045500 -0.306120 0.357446 0.189912 0.331535 -0.083216 -0.110653 -0.527345 0.167683 -0.003294 -0.006060 0.048556 -0.086669 0.065202 -0.024788 -0.057467 -0.277333 0.181684 0.246354 -0.190802 -0.274531 -0.122442 0.104746 0.321530 0.372572 0.460493 -0.192933 -0.471189 -0.237306 0.277820 0.187111 -0.011208 -0.404035 -0.267335 0.388843 0.348413 0.292168 -0.194443 0.447069 0.049613 0.378833 0.256017 -0.155391 0.064808 -0.428022 0.094359 0.505639 -0.130296 -0.381145 -0.176851 0.275651 -0.013598 0.016138 -0.112603 -0.314649 0.138394 0.331730 0.156836 -0.316774 0.304067 -0.447580 0.300376 0.120940 -0.034591 0.115718 0.485122 0.397969 -0.288418 -0.254870 0.005818 -0.092915 0.328145 0.202208 -0.206549 0.463988 -0.264837 0.564989 -0.335004 -0.045737 -0.380698 0.035346 0.150520 -0.152728 0.579417 -0.447621 0.366893 -0.056046 0.135625 0.063217 -0.068215 0.355273 0.120004 0.288480 0.179801 -0.031428 0.305526 -0.005374 0.118890 -0.754733 -0.048762 -0.539274 -0.336355 0.336298 -0.065105 0.031082 -0.046658 0.093444 -0.235447 -0.040465 -0.320395 0.096510 -0.045459 -0.123231 -0.128960 0.077763 0.267028 -0.122092 -0.058975 -0.005551 0.216315 0.586800 0.111140 0.092064 -0.126374 -0.154678 0.061892 0.195772 0.546017 -0.036203 -0.064239 0.164792 0.204646 -0.055432 -0.008742 0.210786 -0.268608 0.051291 -0.075185 0.069850 0.416682 0.036452 -0.184919 -0.011539 -0.159680 0.474820 -0.483927 -0.029795 -0.134232 0.068009 -0.117633 -0.055159 -0.029881 0.099632 0.021576 -0.029936 0.260733 -0.619002 0.844918 -0.380114 -0.442638 0.291731 -0.320944 0.240977 0.060992 0.293505 -0.158710 0.123085 -0.370197 -0.476991 -0.093718 0.229289 0.125381 -0.193956 0.198800 0.167677 -0.037644 0.023483 -0.348556 0.241663 0.090277 0.196263 0.000915 -0.034152 -0.246316 0.132463 -0.063331 -0.209218 0.000668 0.174274 -0.001978 -0.037659 0.297285 0.275123 -0.057622 0.183397 -0.004091 0.307278 -0.114086 0.266024 -0.610770 -0.420618 -0.138442 -0.330440 -0.104537 -0.028730 0.534179 -0.184468 -0.151067 0.007480 -0.508208 0.522402 -0.038521 -0.150133 -0.139647 0.175408 -0.407560 -0.527624 0.361977 0.371348 -0.139862 -0.186513 0.168868 0.126413 0.462894 0.038291 -0.246354 -0.189714 -0.408177 0.331014 0.427320 -0.079536 0.088610 -0.021753 -0.117555 0.290021 0.298665 0.037716 0.197355 -0.052059 -0.104957 0.063920 -0.180117 0.230396 0.504320 0.195993 -0.100510 -0.041991 -0.308190 -0.005047 0.066151 0.169189 0.233076 -0.608280 0.076386 0.249792 0.045661 0.023468 0.025112 0.367014 -0.481419 0.004543 0.327963 0.018309 -0.202080 0.433880 0.025305 -0.055901 -0.089180 -0.162927 -0.126050 0.026169 0.185402 -0.081971 0.304924 -0.313206 0.110328 -0.234324 -0.038642 0.914653 -0.068991 -0.081404 -0.282537 0.148090 0.023030 -0.304980 0.235354 0.101013 0.085469 -0.186778 0.333016 0.042020 -0.081797 -0.170246 -0.344340 0.091193 0.359208 -0.083599 -0.386649 0.599954 0.485704 0.269190 -0.263737 0.037704 0.602000 -0.195945 0.210668 0.309397 -0.030347 -0.116582 -0.116952 0.149174 0.476277 -0.082372 -0.273230 -0.176050 0.378093 0.155419 -0.207960 -0.083468 -0.048194 -0.277659 -0.265250 -0.211120 0.218813 -0.175408 0.096040 0.004426 -0.107680 -0.108331 -0.298459 0.124955 -0.009243 -0.062353 -0.081749 -0.060351 -0.472492 -0.560024 -0.005243 -0.210929 -0.162807 -0.372929 0.167692 -0.224076 0.305650 0.049762 -0.205680 0.173892 0.116084 -0.119474 0.269719 0.346985 -0.198532 -0.213624 0.250720 0.204119 -0.217707 -0.246709 -0.170269 -0.319665 0.195362 -0.153441 -0.365426 0.026475 -0.396473 0.311806 -0.353590 -0.139693 -0.253449 0.240731 0.273283 -0.300320 0.157564 -0.218214 0.184316 -0.096386 0.231424 -0.228155 0.059761 0.821558 -0.009276 0.244859 0.361315 -0.224957 0.038555 -0.161877 0.138803 -0.260398 -0.120686 -0.574368 -0.262829 -0.074814 0.220586 -0.188182 0.443351 0.012145 -0.314239 0.270556 0.064303 0.256516 0.038397 -0.155558 -0.281260 0.153212 0.180253 0.184860 0.113471 0.428851 -0.508046 0.370396 0.070931 -0.031522 0.065731 0.010001 0.025218 0.264402 -0.095308 -0.033931 -0.211083 0.050847 0.065804 0.050955 -0.063263 -0.061376 -0.107370 -0.007355 0.195901 -0.009458 -0.327073 0.024470 -0.129851 -0.002260 -0.154250 0.488032 -0.499113 -0.161023 0.109343 0.260344 0.035807 -0.046291 -0.900877 0.018791 0.020256 0.282496 0.125144 -0.077263 0.191730 0.043382 0.110103 0.075357 -0.480303 0.618453 -0.428482 -0.265980 0.180504 0.436248 -0.259392 -0.061374 0.030267 0.020050 0.157596 0.063295 0.328046 -0.148671 -0.069837 0.194639 -0.170758 0.184362 -0.352070 -0.171016 0.408292 -0.131058 -0.058368 -0.365558 -0.164101 -0.118858 -0.470933 0.330873 0.025992 0.031494 0.000534 0.526459 -0.637557 0.190180 -0.190992 -0.072415 -0.354770 0.244212 -0.223959 -0.299308 -0.371976 0.016455 0.614512 0.188466 0.059176 -0.325104 0.371226 -0.047407 0.025915 -0.249925 0.165544 -0.299993 -0.174835 -0.122434 0.069571 -0.555121 0.116480 0.026007 0.168023 0.045127 0.095606 -0.129011 0.006424 -0.338137 -0.071204 -0.259846 0.577242 0.041193 0.036314 0.080794 0.032249 0.192887 0.111481 -0.172967 0.005710 -0.243154 0.120630 0.003315 0.443214 0.106579 -0.147252 0.002910 0.229746 -0.107858 -0.003889 0.043142 0.065225 0.052644 0.107650 0.284756 0.319155 0.102614 -0.200541 -0.252742 0.051773 0.012663 0.592706 -0.355991 0.228059 -0.458931 0.217672 -0.164584 0.224022 0.236560 -0.442142 0.204673 -0.137247 -0.010060 0.109886 -0.064014 -0.075710 0.182522 0.000231 0.072291 0.572881 0.211526 0.110331 0.145717 0.583841 -0.118923 -0.098877 -0.006817 -0.046011 0.011478 -0.254294 0.123727 0.264822 -0.440286 0.332065 0.038604 -0.090496 -0.043326 0.171835 0.059072 0.233516 0.446947 0.215256 0.260878 0.125240 0.238363 -0.168508 -0.053458 -0.307452 -0.281545 0.123115 0.010952 -0.078707 0.101772 0.108048 0.342212 0.118581 0.207367 0.015606 -0.446533 0.366721 0.311670 -0.347001 0.088879 -0.222835 -0.169906 0.424249 0.372929 -0.148339 -0.114470 -0.281318 0.018312 -0.101966 -1.061453 -0.143695 -0.381416 -0.209082 0.421493 0.376271 -0.011587 -0.575869 -0.130127 0.077719 0.022939 -0.767680 0.225568 0.270935 0.326688 0.039331 -0.274569 -0.031294 0.103681 -0.212848 0.432311 0.006128 0.033123 0.247294 0.354025 0.103820 0.044575 -0.332338 -0.091684 0.291272 0.171265 -0.012668 0.047490 0.324563 -0.242812 0.065033 0.212561 0.173704 0.031576 0.276615 -0.070929 0.439110 0.457847 -0.310182 0.189146 0.017185 -0.009535 -0.229388 0.163798 -0.000335 -0.625053 -0.129069 0.353652 0.353422 0.313474 -0.524454 0.316052 -0.127886 0.282922 -0.174878 0.020076 0.073658 -0.293238 -0.021100 -0.144188 -0.336497 0.136812 0.168221 -0.221901 0.004228 -0.275116 -0.066447 -0.393789 0.294051 0.530463 -0.112095 -0.083585 -0.158769 -0.214323 -0.114849 0.141710 0.004008 0.131112 -0.287167 -0.111223 0.130342 0.232512 0.334520 0.332891 -0.267997 -0.165877 0.390013 0.096525 -0.000733 0.064473 -0.462409 0.162076 0.232552 -0.028017 0.006832 -0.239844 -0.128675 -0.013912 0.129433 0.244850 -0.124502 -0.099815 0.155554 -0.242746 0.108364 -0.236735 0.344552 0.396991 0.226034 0.064937 -0.255018 -0.468638 0.128422 0.249326 0.018393 -0.015483 -0.371503 -0.104797 0.058612 0.322502 0.302469 0.059051 0.056679 0.697241 -0.108031 0.081211 -0.070593 -0.071934 0.097428 -0.373094 -0.159443 -0.054448 0.134681 0.012879 0.015224 0.207682 -0.493439 -0.029878 -0.176496 -0.054557 -0.166108 0.079336 -0.041474 -0.093745 0.038242 0.075465 -0.015931 -0.610111 0.158093 -0.015842 0.094951 -0.121368 -0.152917 -0.091228 -0.295192 -0.065731 0.169828 0.322924 0.227880 -0.140076 0.083843 0.020776 0.181979 0.324858 -0.056293 0.144464 -0.097398 -0.086640 0.153291 -0.170178 0.107743 0.021718 -0.457019 -0.038907 -0.064920 -0.074283 -0.123839 -0.303641 -0.087755 0.164066 -0.045096 -0.436984 0.234173 0.157735 0.162335 -0.161790 0.090128 0.157751 -0.145122 0.103191 -0.000540 0.367065 -0.180342 -0.209584 0.246474 0.021133 -0.240859 -0.215615 0.119143 -0.227272 -0.022750 0.014639 -0.153029 -0.413684 0.214026 -0.236884 0.101392 0.006509 -0.278910 0.014426 -0.282537 -0.034751 0.470468 -0.190452 0.370632 -0.049119 0.252257 -0.035001 0.022295 0.278081 0.139245 -0.172636 0.143219 -0.225816 0.205288 0.015094 0.055441 -0.281956 0.089390 0.112489 0.156727 0.330706 -0.250609 -0.024195 -0.318766 -0.211925 -0.311099 -0.229513 0.131950 -0.271090 0.078077 0.043730 0.415422 0.204672 -0.151453 0.371673 0.112824 0.406576 0.390913 -0.072736 0.086065 0.291513 -0.095484 -0.075398 0.332437 -0.268807 -0.166215 -0.760112 -0.249613 -0.256596 0.367213 0.188462 -0.200175 -0.622515 -0.264604 0.136977 0.510020 -0.037312 0.082210 -0.500722 -0.353367 -0.024711 -0.253121 -0.360708 -0.025737 -0.497773 -0.028581 0.041894 -0.165445 -0.141914 0.201419 -0.229199 -0.036101 0.030548 0.095702 -0.158858 -0.036273 -0.048225 0.042033 -0.123114 0.132389 -0.097274 0.016967 -0.352385 -0.182229 -0.079152 -0.353106 -0.435601 0.434305 -0.146496 0.098994 0.277283 -0.071488 -0.076365 -0.352177 -0.212457 -0.141844 0.107892 -0.803436 -0.036573 -0.012307 0.076429 0.100124 -0.241249 -0.050466 0.187533 0.074035 0.367353 -0.430201 -0.114848 -0.081984 -0.039598 0.398786 0.009302 -0.188201 -0.122400 0.866531 0.152354 -0.293124 0.002060 -0.226269 0.626312 -0.148398 -0.123412 0.160841 -0.098075 0.381217 0.435365 0.533835 0.228889 0.109817 0.062006 0.605001 0.272152 -0.293067 -0.059426 -0.558142 0.177143 -0.162415 0.333961 0.429782 -0.218137 -0.059954 -0.424298 -0.199733 -0.159185 0.421383 0.057516 -0.153387 -0.008221 -0.025049 0.262427 0.404885 -0.108878 -0.371847 0.116207 -0.093915 0.284706 -0.127659 -0.110154 -0.011758 0.100693 -0.023132 -0.439813 -0.022890 -0.304198 0.166603 -0.244455 0.366165 -0.146840 -0.016121 0.441716 -0.126277 0.219457 0.109764 0.119150 0.041633 -0.165871 -0.146532 -0.076935 -0.231889 -0.659305 -0.275982 0.033291 0.403881 0.008937 0.113848 -0.337697 -0.243810 0.481524 -0.035843 0.312829 0.117185 0.370544 -0.008891 -0.132240 0.014108 -0.255932 -0.055651 0.302316 -0.002733 -0.436535 0.349209 0.058406 0.061927 -0.146193 -0.197618 0.166833 0.077292 -0.230723 0.195312 0.396443 -0.015156 0.005232 -0.289422 0.146892 -0.161718 0.008005 -0.046460 -0.407468 -0.201540 0.066911 0.212792 0.287075 -0.665948 0.094511 0.082672 -0.201841 0.065363 0.173970 0.177302 -0.240801 -0.159145 0.040789 -0.262969 0.249321 0.394129 -0.103020 -0.012066 -0.170070 0.128873 0.043668 -0.222170 -0.139179 -0.216690 0.082076 0.071662 0.490854 0.078764 0.271223 -0.026697 0.040729 0.000510 0.060655 0.195098 0.117403 0.362713 -0.080941 0.178033 -0.113991 -0.010483 -0.273798 0.323612 0.280644 -0.213017 -0.184665 -0.402791 -0.013142 0.164834 0.481738 0.324081 0.220923 -0.226857 0.374878 -0.193628 0.318195 0.033733 0.319066 -0.257853 0.127524 0.027365 0.052990 0.085122 0.190707 0.356066 -0.042373 -0.069858 0.015925 -0.292194 0.053238 0.088787 -0.021167 0.248890 -0.117429 -0.176976 0.044818 0.171674 -0.259985 -0.029672 -0.309003 0.240294 0.006155 0.252339 -0.164103 0.146381 -0.065885 -0.038835 0.325869 -0.069925 -0.176197 -0.013236 0.173076 0.131003 -0.117711 -0.085605 0.232124 0.361348 0.189526 -0.336702 0.104437 0.055864 -0.151710 -0.362906 -0.007161 -0.034638 -0.013040 -0.233668 0.045569 0.307547 -0.009121 0.002268 -0.037850 0.278286 -0.116920 -0.019715 0.119180 -0.591652 -0.009599 0.000653 0.027383 0.000069 0.190708 0.149312 0.155707 -0.066241 0.074930 0.012666 -0.336633 0.226015 0.156164 -0.156561 0.252479 -0.259445 0.046958 0.410352 0.010824 0.048833 -0.397650 -0.268949 -0.013940 0.486588 -0.270877 -0.144290 0.202690 -0.268094 0.276570 0.348122 0.099177 -0.530980 -0.414712 0.093836 0.313033 -0.451854 0.198379 0.318521 0.164410 0.505768 -0.048368 -0.097085 0.111300 0.025793 0.203049 -0.129060 0.042242 0.316685 0.171529 -0.407264 -0.127909 0.069116 -0.512871 -0.403133 -0.179729 -0.177612 -0.265759 -0.167978 0.539533 -0.549997 -0.236300 -0.164586 0.044919 0.246775 -0.325937 -0.478860 0.361429 0.040371 0.162749 -0.003018 -0.553410 0.130580 0.166683 0.070368 0.094307 0.350250 -0.011579 0.105448 -0.141233 0.479762 -0.020050 0.077239 -0.201075 0.501921 0.033418 -0.117836 -0.076008 -0.296155 -0.014447 0.520557 -0.105190 0.011863 -0.251276 -0.057221 0.054284 0.147769 -0.918377 0.075461 -0.435225 0.090816 -0.046583 0.208325 0.197451 0.080379 -0.027070 -0.203610 -0.441466 0.072142 -0.160728 -0.131976 0.288878 0.015431 0.197528 -0.398169 -0.105331 -0.393751 -0.143305 -0.180971 -0.191152 0.242051 0.075510 -0.032073 -0.114732 -0.241514 -0.192145 0.005450 -0.121110 0.107573 0.080839 0.332519 0.075265 -0.249665 0.140925 -0.307061 -0.014012 0.308353 0.167172 -0.186300 -0.024683 -0.116496 0.005629 -0.536111 -0.409397 -0.385886 -0.039860 -0.251371 -0.185060 0.344893 -0.376077 -0.089510 -0.121047 -0.014662 0.142614 -0.015551 -0.023267 -0.003390 -0.024039 -0.007558 -0.349319 0.083670 -0.053461 0.119641 -0.004132 0.071300 0.015058 0.054844 0.039957 0.023824 -0.037086 -0.107925 0.060594 0.303043 -0.168695 -0.133508 -0.041220 0.115441 -0.101643 -0.059181 -0.116130 0.150624 -0.006807 0.147372 0.061720 0.191928 0.199569 -0.006594 0.086720 0.099688 -0.050640 -0.186025 -0.265921 -0.150525 0.673604 -0.222727 -0.335110 0.449114 0.833654 0.363113 -0.062853 -0.122657 0.140235 -0.371762 -0.005190 0.096948 -0.127634 0.345524 -0.704987 -0.083011 0.402350 0.248197 -0.215728 0.335097 0.385010 0.143733 0.205819 0.078000 -0.379130 -0.525673 0.536939 0.561166 0.057350 0.033162 -0.176304 0.187976 -0.185612 -0.274386 0.013459 -0.162580 0.053261 0.176731 0.905770 -0.297072 -0.625855 0.465532 -0.229555 0.071383 0.593948 0.361078 0.109522 -0.214024 0.072545 -0.074320 -0.303107 0.130952 0.268072 0.395504 -0.037230 -0.175267 -0.124783 -0.185286 0.211244 -0.044109 0.007601 0.247578 0.178756 -0.122017 -0.226016 0.065195 0.037640 -0.199894 -0.013089 -0.139236 0.087578 -0.057284 -0.074653 -0.263137 -0.152494 -0.077874 -0.080215 -0.063383 0.303645 0.019238 -0.305396 0.177100 -0.081637 0.087027 0.473689 0.056681 -0.102282 -0.164686 0.020554 0.321400 0.050904 0.227472 -0.001547 0.050633 -0.240759 0.127612 -0.353959 0.328885 -0.661276 0.391845 0.177055 -0.359974 0.149896 -0.200826 -0.101050 -0.303966 0.386195 -0.203038 -0.122299 -0.075480 -0.046972 -0.220289 0.158849 -0.100674 0.112735 0.153508 0.068947 -0.174317 -0.085731 0.423235 0.052081 0.390802 -0.019580 0.015037 -0.113632 0.261937 -0.135173 0.060152 0.051415 -0.260369 -0.132262 -0.195839 0.327337 -0.170738 -0.321374 0.056731 0.468538 0.021014 -0.953010 -0.866538 -0.005417 0.332788 -0.059734 0.154013 0.388140 -0.018941 0.374491 0.233480 0.082394 -0.130279 -0.068711 -0.084922 -0.437129 0.016393 -0.177058 0.093318 -0.076823 0.040759 -0.087827 -0.130888 -0.129265 0.020977 0.172780 0.066110 0.021455 0.180407 -0.052368 -0.073490 -0.012175 -0.199894 0.018550 -0.266481 -0.000580 -0.009286 -0.110833 -0.089708 0.128339 -0.148926 0.228675 -0.238823 -0.148296 0.365647 0.069818 0.102666 -0.049726 -0.031573 0.129435 0.102903 0.134688 -0.115253 0.299349 0.000498 -0.243637 -0.048471 0.133972 -0.110198 -0.217875 0.100230 -0.318001 -0.361726 0.078239 0.046679 0.006131 -0.229449 -0.075437 0.240609 -0.224313 -0.026110 -0.049692 0.136366 -0.212072 0.042617 0.258385 -0.152480 0.268846 0.060935 0.094758 -0.091541 0.115875 0.106945 -0.135209 0.075756 -0.179374 0.354745 0.301465 0.368765 -0.105098 -0.239461 0.172681 -0.064759 -0.247800 -0.254097 -0.309128 0.026986 -0.213073 0.077630 0.150501 -0.198120 0.133330 0.029577 0.120114 -0.595276 0.222543 -0.041252 0.140614 0.143429 0.234107 0.116987 -0.325578 0.077310 -0.034290 -0.097533 -0.092460 0.200084 -0.293673 0.329324 -0.134272 0.252847 0.246194 0.166344 0.111034 -0.704466 0.085438 -0.029734 0.169685 0.071743 0.094414 -0.216582 -0.186903 -0.013423 -0.107077 0.089267 0.093270 0.056765 -0.082720 0.152661 -0.085044 0.065711 -0.071711 -0.021995 -0.021493 0.035458 0.043676 0.153051 0.385963 0.121576 -0.048548 -0.296356 -0.315878 -0.267880 -0.223835 0.330481 0.173585 0.088764 0.274889 0.015022 -0.222450 0.064164 0.211036 -0.243544 -0.422946 0.266318 -0.198969 0.151608 -0.055291 0.033618 0.199911 0.328794 0.403705 -0.445088 0.324503 -0.162025 0.390607 -0.048938 -0.137936 0.155072 -0.125739 -0.138192 0.131554 0.023865 0.333135 -0.169852 0.211806 -0.019124 0.069079 -0.017450 -0.304396 -0.180551 0.052609 -0.147259 -0.480971 0.424490 -0.358211 0.240639 -0.037333 0.031940 0.160508 0.253014 -0.097487 0.366237 -0.058775 -0.215216 -0.087421 0.316572 0.158808 -0.075459 0.265846 -0.276538 -0.245295 0.153205 -0.292457 -0.266650 -0.274530 -0.202296 0.046398 0.324857 0.371418 -0.232296 0.374341 -0.220210 0.153854 -0.036303 0.174056 0.634042 -0.148073 -0.308995 0.086550 0.245298 0.269998 0.019362 -0.236898 0.063471 0.129314 -0.146279 -0.427401 0.137083 0.239118 -0.153435 -0.281596 0.395586 -0.063634 0.355468 -0.492065 -0.781689 
48
-0.053501 -0.047269 -0.087350 0.151744 0.064305 -0.018592 -0.023584 -0.271742 -0.070203 0.093454 0.062225 -0.064690 -0.049713 0.004769 -0.088032 0.184197 0.098558 -0.115152 -0.130153 0.096378 -0.024259 0.081087 -0.012908 -0.148993 -0.017472 0.029740 0.048606 0.210530 0.008826 -0.195276 0.135163 -0.026456 -0.294801 0.028625 -0.092434 -0.093427 -0.125263 0.032060 -0.221149 0.032980 -0.234882 0.050961 -0.042526 0.026620 0.172096 0.046724 -0.003616 -0.043771 
48
-0.029754 -0.146961 0.044759 0.011980 -0.192296 0.074974 -0.291994 -0.131321 -0.081142 -0.140948 -0.128526 -0.244327 0.136855 -0.008873 -0.144367 -0.426370 -0.107662 0.060793 -0.004346 -0.138152 0.067913 0.164566 0.132807 -0.290689 0.094858 -0.031891 0.150155 -0.081993 0.384191 0.025979 0.138278 -0.088524 -0.148056 0.068723 -0.494171 -0.151434 0.109377 -0.012884 -0.092446 -0.540020 -0.213103 0.372009 -0.111451 -0.241378 -0.203166 -0.075059 -0.218536 0.119909 
48 48
0.326442 0.372324 -0.223340 -0.099897 -0.517661 -0.087459 -0.109702 0.038591 -0.136873 0.241704 -0.282844 -0.438464 -0.022560 0.289386 -0.057767 -0.270666 -0.267511 -0.147939 0.113225 -0.235923 0.081447 0.076060 0.008949 0.058648 0.176051 -0.068495 0.298325 0.043052 0.231255 -0.153635 -0.076268 -0.209857 0.205618 -0.394400 -0.422941 -0.083246 0.156005 -0.393522 0.306309 0.366199 -0.073510 0.384312 -0.065225 -0.000988 0.177045 0.113759 0.082143 -0.028017 -0.164495 -0.078156 -0.093677 0.260113 0.242046 -0.036494 0.036979 -0.078425 0.088338 -0.055892 0.186124 -0.187801 0.198252 0.307227 0.185321 -0.303819 0.160756 0.000349 0.113798 -0.361363 -0.282789 0.177535 0.291810 0.130579 0.223812 0.241819 0.004749 -0.088261 0.210917 -0.057039 -0.144040 0.027175 0.168474 0.078559 0.385992 -0.127917 0.088502 0.114890 0.198320 -0.138706 0.009397 -0.145266 -0.060121 -0.060395 -0.089792 0.240068 0.192380 0.195768 -0.260405 0.069479 -0.183712 -0.449914 -0.195524 0.680832 0.047301 0.032610 0.192318 -0.006892 -0.133520 0.347438 0.022326 -0.192260 -0.212262 -0.608198 -0.084877 -0.121050 0.134893 0.005627 0.076696 -0.243760 -0.054151 0.030736 0.303565 0.380949 -0.687531 -0.286921 -0.111470 0.002596 0.513072 -0.137506 -0.228820 -0.355009 -0.125963 0.378443 0.254612 0.501812 0.385835 -0.148614 0.783034 0.291173 0.250301 0.026525 -0.191840 0.042866 -0.002837 0.512727 -0.030085 0.153897 -0.284071 0.306172 -0.196504 0.060369 0.047731 -0.306657 -0.126783 0.556514 -0.425989 -0.374120 0.574207 -0.181070 -0.277201 -0.245628 0.046569 -0.117431 0.078617 -0.013785 -0.178491 -0.034804 0.238283 0.247172 -0.194559 0.369202 -0.059552 0.019850 0.137246 -0.185021 -0.407124 0.016128 0.456352 0.227833 -0.454777 0.143689 0.121956 0.172997 0.088962 0.037269 0.319694 1.039345 0.118364 -0.077781 -0.125998 0.269028 -0.198509 0.430033 0.104877 0.033454 -0.099561 0.025793 -0.282175 0.020147 0.108321 -0.501080 -0.202864 -0.319030 0.216901 0.048417 0.117793 -0.045155 -0.049757 0.013420 0.017431 0.199528 0.097334 -0.009603 0.209819 -0.144412 0.063565 -0.014924 -0.104593 -0.022329 -0.081397 -0.149963 0.056057 -0.177446 -0.361593 -0.191752 0.413860 0.335444 -0.042011 -0.152232 -0.086346 -0.240068 0.052365 -0.076501 0.137625 0.155113 -0.107864 -0.054595 0.069644 -0.052917 -0.223509 0.185917 -0.513562 0.208687 -0.018095 -0.012617 0.158572 -0.086523 0.025360 -0.160178 0.486384 0.346983 -0.120020 0.057946 0.100285 -0.132203 -0.130556 -0.084126 -0.103470 0.011223 -0.221387 0.075416 0.239078 -0.029892 -0.114672 0.148811 0.604627 0.173957 0.457314 0.130741 0.500986 0.011976 0.169179 0.042411 0.206338 0.253529 0.051292 -0.174301 0.038551 -0.094527 -0.063454 -0.196858 -0.243472 -0.328997 0.312263 0.069687 -0.004794 0.259605 0.170401 0.082867 -0.096302 -0.139037 0.377164 0.197414 -0.025570 0.011697 0.001596 0.095402 -0.064318 -0.236986 -0.060340 -0.438615 -0.173284 0.021057 0.045180 -0.033066 0.274259 -0.330080 0.072199 0.181937 0.232301 0.114418 -0.063461 -0.119787 0.053748 -0.103486 -0.093696 -0.420995 -0.043658 0.055860 -0.018770 -0.179263 -0.010235 -0.621815 -0.012210 0.033026 0.023102 -0.157113 -0.204555 -0.265908 -0.421526 -0.510064 -0.043008 -0.116879 -0.106778 -0.151646 -0.000784 -0.667948 -0.283167 -0.095007 -0.232250 0.512713 -0.173981 -0.007029 0.055036 -0.112110 0.236469 0.142068 -0.145631 0.025996 0.088984 0.267179 -0.368719 -0.094287 -0.067637 -0.056828 0.269340 0.060136 -0.021636 -0.071181 0.149230 -0.113420 0.305384 0.178055 -0.177743 0.130036 0.220277 -0.149614 -0.370302 -0.185750 -0.348174 -0.141177 0.066929 0.066445 -0.108155 -0.080327 0.019802 -0.127504 0.104788 -0.102097 0.046507 0.222660 -0.186787 -0.131941 0.064741 0.048814 0.002087 -0.035741 -0.552631 0.144102 0.674730 0.193176 0.008201 -0.193546 0.139852 0.084301 -0.046482 0.295936 0.047798 0.029969 -0.254262 -0.502858 -0.020269 -0.690809 0.366964 0.083294 0.220891 -0.034294 -0.212168 0.311840 -0.722593 0.039937 -0.261564 -0.239612 0.272483 -0.177205 -0.181085 -0.217058 0.307671 -0.299147 -0.124256 -0.148084 0.049651 -0.142129 0.494876 0.209918 0.187256 0.045950 -0.006519 -0.220401 -0.241452 0.003873 -0.258691 -0.073538 0.055003 -0.130367 0.719745 0.541508 -0.191587 0.130058 -0.074035 -0.239822 0.053504 0.467562 -0.400313 -0.356731 0.021852 0.195147 -0.230124 -0.091607 -0.197637 -0.131652 0.169761 0.355804 0.084725 -0.093963 -0.080898 0.223183 -0.021708 -0.442152 0.392361 0.055522 -0.192845 0.116260 0.020888 0.097066 -0.149498 -0.090252 -0.309382 0.093393 0.047260 0.192840 0.544224 -0.294203 -0.479658 -0.375356 -0.035428 -0.024861 0.274633 0.268552 0.172389 -0.216259 -0.016179 -0.276196 -0.510287 0.211010 -0.008287 -0.049522 0.221069 -0.281327 0.216041 0.300206 -0.225670 0.141159 -0.208530 -0.068614 0.071548 -0.037881 0.029806 0.212341 0.002284 -0.185796 0.206840 -0.022334 -0.315846 0.088128 -0.016244 -0.083186 -0.043613 0.049993 -0.137642 0.076819 -0.067124 0.180825 0.009826 -0.206982 -0.075989 0.039664 0.131673 -0.024681 -0.014887 -0.262425 -0.051735 -0.119815 -0.005772 0.210420 0.163601 -0.262748 0.075517 -0.238231 0.723063 0.172741 0.092675 0.356864 -0.141264 0.074213 -0.411006 -0.164059 -0.132928 0.451882 -0.412002 -0.146561 0.181272 -0.110105 -0.175030 -0.145940 -0.102749 -0.165475 0.027410 0.134593 0.002992 -0.329833 0.059130 0.001523 0.418065 -0.210774 -0.008722 -0.275185 0.064879 -0.207645 0.063874 0.009270 -0.201946 -0.264725 -0.413009 -0.034654 0.187196 0.062821 0.296256 -0.163605 -0.204455 0.428753 0.310511 -0.241097 0.237564 0.310319 -0.333110 -0.445509 0.432738 -0.070226 -0.131231 -0.072366 -0.263182 0.165779 -0.167870 -0.097525 0.040045 0.059564 0.116802 0.134892 -0.210192 -0.148422 -0.187649 -0.310615 0.198612 -0.429952 0.160101 -0.357607 0.021038 -0.206796 0.233311 0.108341 0.265758 -0.046969 0.156307 -0.394655 0.165177 -0.145909 -0.209305 0.121811 -0.040491 -0.457228 -0.237243 -0.109822 -0.199133 0.001038 0.286778 -0.036347 0.017627 -0.301331 0.344682 -0.154967 0.006158 -0.019087 0.019875 -0.350661 0.026693 0.132064 -0.215426 0.063640 0.018732 0.268935 0.110474 -0.309287 -0.101093 0.687665 -0.540346 -0.384253 0.191083 0.015894 -0.182891 -0.524714 -0.163312 -0.109349 -0.046575 -0.014820 -0.043706 -0.223491 0.000168 0.178837 0.365058 -0.047183 -0.208223 -0.405231 0.037051 0.171031 0.369262 0.273737 -0.123458 -0.216629 -0.517600 0.376405 0.265029 0.475837 0.371092 -0.150652 0.667762 0.480739 0.050904 -0.133789 0.127560 0.198020 0.054825 0.122331 0.033536 0.441961 -0.163578 0.178083 -0.097007 0.219064 0.085433 0.140211 -0.050593 0.101583 -0.148693 0.230727 -0.010479 0.322517 0.169248 -0.240804 0.037717 -0.118820 0.234734 0.029065 -0.327399 -0.164776 0.120814 0.385299 -0.315232 0.393225 0.051539 0.465866 0.059935 -0.011511 0.067132 0.448037 0.420013 0.167839 0.261173 0.143010 0.088362 -0.167761 -0.116541 0.308000 0.436076 0.037888 -0.042021 0.023940 0.259922 0.142382 0.042873 0.250265 0.465200 -0.000725 -0.203744 -0.179351 -0.042243 0.110597 0.130708 -0.278845 -0.135248 0.791790 -0.116484 -0.743596 -0.073836 0.212617 0.334421 0.025487 -0.696004 -0.497361 0.395911 0.013735 0.233748 -0.124597 -0.326528 0.148753 -0.035105 -0.326209 -0.102031 0.228308 -0.244857 0.011753 0.123762 0.002170 -0.027156 -0.485055 -0.275429 0.142767 -0.010652 0.254747 0.052776 0.254660 0.561898 -0.121591 0.170646 0.010726 0.033969 0.220025 0.164270 -0.040970 -0.195057 -0.059078 0.280326 0.282012 -0.131201 0.048989 -0.270860 -0.202969 -0.044402 -0.169618 0.068663 0.387173 -0.269778 0.007326 -0.423580 0.033106 0.190320 -0.013023 -0.074900 0.018634 0.070409 -0.065066 -0.049581 0.076767 0.263108 -0.004464 0.141075 -0.184249 0.172827 0.187085 0.167279 -0.250148 -0.257132 -0.012919 -0.081494 -0.281005 -0.062603 0.140256 0.196965 -0.593740 -0.304226 -0.284244 0.021383 -0.119548 -0.132560 -0.186834 -0.062377 -0.715597 -0.124045 0.161060 0.240607 -0.109197 -0.060346 -0.311690 0.095736 -0.086779 -0.392112 0.081249 -0.131085 0.008669 0.085747 0.125631 0.235398 0.080233 -0.291192 0.108286 0.123818 -0.012604 -0.089176 -0.072055 0.058529 -0.054055 0.007118 0.098584 0.796642 0.416429 0.025299 0.040349 0.107966 -0.124980 0.432559 0.255964 0.090535 -0.337707 -0.303592 0.036388 0.018814 -0.056391 -0.128730 -0.099039 -0.141626 -0.057180 -0.147096 -0.189490 -0.004864 0.038963 0.185105 0.229161 0.018810 0.093482 -0.013503 -0.019803 0.054633 0.003018 0.128787 0.431171 -0.095640 -0.447337 0.020606 0.414585 -0.033527 -0.009940 -0.162846 -0.408719 0.277599 0.044433 0.021800 -0.514986 0.206829 0.107588 0.418729 -0.362007 0.548871 0.015975 0.281157 0.241645 0.222651 -0.246104 -0.261212 -1.013464 0.416859 0.162579 0.310331 0.049789 -0.022341 0.442636 -0.195020 0.080260 0.185384 -0.037501 -0.189973 0.214056 0.030236 0.287548 -0.583633 0.053337 0.335299 0.133502 -0.284079 -0.409146 0.295576 -0.198387 0.026265 0.225439 -0.028479 -0.140977 0.208223 -0.048629 -0.301106 -0.056711 -0.121921 0.070707 0.048409 0.103455 0.027734 -0.099888 -0.076851 0.095706 0.338932 -0.029907 0.226777 0.030067 0.594667 -0.052696 -0.302039 -0.016936 0.107840 0.238702 -0.219942 0.027786 -0.264948 -0.458681 -0.134207 -0.267946 -0.454764 -0.187590 -0.021213 0.138776 -0.055256 -0.230803 -0.175439 -0.581416 -0.176210 0.237338 -0.434901 -0.509938 -0.013244 0.266135 0.012310 0.023153 0.049201 0.308044 0.014959 -0.363485 0.027849 0.093643 -0.026983 -0.122843 -0.302844 -0.157637 0.354550 0.043015 -0.082571 -0.086925 0.053153 -0.188473 0.000084 -0.025006 -0.235104 0.027995 0.077611 -0.075839 0.044366 -0.098995 0.142381 -0.068765 -0.165942 -0.016135 0.189800 -0.221692 0.090368 0.502138 0.308809 0.603507 -0.058466 0.047532 0.034543 0.206432 -0.003536 -0.064032 -0.002147 0.118472 -0.222782 0.261360 0.793055 0.149330 0.169870 0.004365 0.122684 0.272668 -0.209011 -0.544122 0.526367 0.309511 -0.197274 -0.822501 -0.168824 0.212999 0.550291 -0.206165 -0.393499 0.008967 -0.049883 0.141105 0.058593 0.066711 0.436024 0.225118 0.161826 0.196310 -0.126198 0.141968 0.088126 0.324345 -0.360235 -0.148345 0.557121 -0.298800 0.694149 0.118830 -0.201123 0.292639 -0.125828 0.009332 -0.269584 -0.067871 -0.037803 0.186683 -0.034930 -0.265609 -0.239816 0.138101 -0.000528 0.218628 -0.373089 0.005996 -0.241395 -0.043982 -0.132918 0.135634 0.015874 0.030636 -0.039120 -0.009481 0.116061 -0.095375 0.224796 0.247023 -0.189214 0.090143 0.185471 -0.036438 0.224735 -0.052184 -0.565005 -0.158984 -0.271669 -0.058425 -0.415403 0.046078 0.387750 0.367760 -0.440382 0.190919 -0.028240 -0.094639 -0.433746 -0.296699 -0.079155 0.406669 0.022265 0.116537 -0.051419 -0.080752 -0.106301 -0.297346 0.300111 0.120578 0.025439 -0.452369 -0.259777 0.420975 0.000889 0.011013 -0.099479 0.120928 0.115707 -0.248293 0.042078 0.054811 -0.020857 0.075697 -0.303493 -0.169311 -0.035796 0.115787 -0.044552 0.091602 0.008037 -0.197100 0.033442 -0.240573 -0.371609 -0.098985 0.162576 -0.295489 -0.012543 -0.338428 0.194742 -0.035124 0.128400 -0.025157 -0.051033 -0.058239 0.162832 0.180798 0.110609 0.446804 -0.039442 0.016456 0.077278 -0.019713 -0.192888 -0.352525 0.209589 0.013089 -0.216084 -0.102200 0.672027 0.177658 0.132931 0.165127 -0.005576 -0.046560 -0.098618 0.101252 0.098931 0.320788 -0.467816 -0.610141 -0.058333 -0.111748 -0.043801 -0.146032 0.034009 0.068661 -0.016734 0.327434 0.261308 0.022790 0.336116 0.349294 -0.033911 -0.128244 -0.216002 -0.152426 0.089971 -0.635858 -0.183087 -0.169226 0.230268 -0.321872 0.271342 -0.054039 0.138425 -0.006269 0.446782 0.065763 0.279329 -0.016446 0.323575 0.110396 -0.662635 -0.065940 0.016354 -0.364045 -0.275500 0.067111 0.112124 -0.083738 -0.163390 0.250844 0.209913 -0.102189 -0.016542 -0.028121 -0.318692 -0.142044 0.054709 0.244679 0.102388 0.145764 0.010382 -0.079035 0.049178 -0.183000 -0.130290 -0.065888 -1.027864 -0.198771 -0.103259 0.156261 0.211308 0.013147 0.178729 -0.328097 0.189099 0.457765 -0.171125 0.075485 0.164441 -0.058428 0.168262 0.172334 0.089341 0.091090 -0.426141 0.098512 0.146849 0.012418 -0.047194 0.599237 0.306435 0.189148 -0.149568 -0.171230 0.201084 0.053391 -0.293204 0.006782 0.044241 0.584831 0.240987 -0.188070 -0.060880 -0.339947 0.116684 0.402525 -0.190641 0.289624 -0.228720 0.086523 0.151781 -0.049039 0.587348 -0.032895 0.192007 0.074831 0.137822 0.107977 -0.176299 -0.428319 0.216133 -0.061640 -0.273061 -0.033599 0.002791 0.111635 0.073891 -0.218507 0.072087 0.099162 -0.096769 0.032018 -0.009879 0.112408 0.134376 0.132007 -0.012102 0.045713 0.237604 0.133066 -0.417573 0.211370 -0.202220 0.065136 -0.056374 0.029807 0.236739 -0.019784 -0.329354 0.035727 0.103393 -0.098793 0.110984 -0.308879 0.037842 -0.357432 0.161468 -0.081005 0.315111 0.365581 0.169852 -0.288421 0.463285 -0.059474 0.607922 -0.074616 -0.440155 -0.246042 -0.089747 -0.123342 0.171869 -0.111674 -0.047663 -0.070791 0.542665 -0.602394 0.082018 0.547859 0.230928 -0.025035 -0.343809 -0.065463 -0.179948 0.052430 -0.467139 0.019019 -0.409267 0.081403 -0.495656 0.004863 -0.351361 -0.034384 0.122149 0.362807 -0.212210 -0.100128 0.287909 -0.143339 0.258623 -0.154501 0.223512 0.426816 -0.166531 0.275026 -0.262467 -0.134816 0.203758 -0.118473 0.377512 -0.033722 0.109219 -0.431132 -0.416858 0.083077 -0.014452 -0.458212 -0.169044 0.019476 -0.512528 0.012400 -0.154246 -0.063651 0.263758 -0.241418 0.409457 0.079330 0.333955 0.004824 -0.265792 -0.317743 -0.192850 0.562297 0.183251 -0.124701 0.018900 0.004093 -0.020331 0.388277 -0.089548 0.033663 -0.104067 -0.001454 -0.139015 0.408779 -0.013589 0.126873 -0.059492 -0.178786 0.087267 -0.054642 -0.193900 0.387320 0.129254 0.042862 0.036403 0.136448 0.330418 -0.334062 -0.067013 0.095512 0.189799 0.120972 0.084939 0.175771 -0.001154 -0.697707 -0.042208 0.258732 0.023399 0.725740 -0.016787 0.113018 0.398498 0.068829 0.657712 -0.049501 0.138767 0.001737 0.192171 0.261731 0.187647 -0.749796 -0.043746 -0.155761 0.285130 0.321838 0.120793 -0.079208 0.187000 0.154768 0.020769 0.113978 -0.126491 0.065359 -0.158371 -0.067687 0.308006 0.100200 0.131038 -0.450105 0.282975 0.025963 -0.186470 -0.416937 0.102056 0.011524 -0.021942 -0.236745 0.016890 -0.101829 0.340701 0.233423 0.219665 -0.348846 0.138523 0.033952 -0.093320 0.013342 -0.311573 -0.326097 -0.049675 0.050299 0.117414 0.207761 0.080950 -0.247794 0.268634 -0.042392 0.558274 -0.095281 -0.153002 -0.286419 0.723125 0.300717 0.067529 -0.032369 -0.180745 -0.153378 0.267294 0.617952 -0.379945 0.258218 -0.270382 -0.628384 -0.088923 -0.135269 0.049814 0.226437 0.325962 0.171265 0.090313 0.585403 -0.387257 0.115361 0.023691 0.099449 0.334982 0.123667 0.028733 0.026752 -0.094128 -0.433001 0.334767 -0.206557 0.151595 0.561375 0.356063 0.183477 0.292795 -0.457068 0.342264 -0.075667 -0.077766 0.056941 -0.024489 0.104105 0.007807 0.143095 -0.133126 -0.067596 -0.175733 0.325684 0.431195 0.181681 -0.042873 -0.060768 -0.017194 0.346320 0.205536 -0.104949 -0.439107 -0.716536 0.458508 0.193712 -0.000661 -0.523855 -0.094225 0.038138 0.142577 0.018443 0.109546 0.187153 -0.259313 0.039178 0.209200 0.155239 -0.148890 0.149626 0.119142 0.344145 -0.072291 -0.000385 0.289388 0.265856 0.352042 -0.039695 0.338771 1.309761 -0.141875 -0.001241 -0.117556 0.009970 0.004742 0.267828 0.063347 0.747003 0.042397 0.031913 -0.367392 0.389508 0.062811 0.052948 0.015396 0.307970 0.125896 0.175656 0.110921 -0.194580 -0.233517 -0.213076 -0.017967 -0.069119 -0.289410 -0.273301 -0.196527 -0.133862 -0.029109 0.170222 0.593068 -0.142785 0.464477 -0.020609 0.112741 0.132685 -0.136220 -0.376472 0.128247 -0.221033 -0.214822 -0.210080 -0.057177 0.041866 -0.055891 0.112999 0.265115 0.362025 0.080695 -0.103136 -0.091413 0.007816 0.015594 0.097551 -0.242016 0.010104 0.147053 0.506904 0.350018 0.008681 0.003599 0.010916 0.077569 -0.429580 0.027870 0.539698 0.212315 0.105610 -0.142153 -0.531601 0.140397 0.148730 -0.077203 0.167425 -0.041792 -0.018229 -0.050849 0.171720 -0.180049 -0.248321 -0.284848 -0.230962 0.012803 0.060323 -0.075429 0.353978 -0.050554 -0.377184 0.736580 0.094006 0.302550 0.272776 -0.068837 -0.674765 -0.081237 0.059292 0.025005 -0.018389 -0.033554 0.165175 0.114547 -0.149685 0.455911 -0.300659 0.740557 0.378591 0.282078 -0.634332 -0.295430 -0.127999 -0.022437 -0.035545 0.120232 0.644736 0.086836 0.065935 0.028274 0.390012 0.139649 -0.013736 -0.222945 0.335420 -0.213694 -0.093330 0.225285 0.284270 -0.103240 -0.075400 0.303469 -0.153885 0.059914 0.044930 0.088440 0.086128 0.002394 0.235746 0.393471 0.119051 -0.391495 0.409984 0.263959 -0.086195 -0.234090 -0.466717 0.197865 -0.232640 0.134361 0.142595 0.130398 -0.115474 0.229377 -0.286182 -0.139585 0.052022 -0.144319 0.033812 -0.200842 -0.042982 -0.106525 0.034902 -0.192289 -0.131119 -0.034608 0.095851 0.011423 -0.253082 -0.089108 0.049241 0.176940 -0.305345 -0.207062 0.015039 0.000958 -0.417409 0.064201 -0.079045 -0.188205 -0.079491 0.207518 -0.132633 -0.153200 0.046302 -0.129293 0.121621 -0.102700 -0.153623 0.033392 -0.183878 0.005679 0.032221 -0.150493 0.862331 -0.108552 0.045519 0.279974 -0.053517 -0.028265 0.075466 -0.113161 -0.038429 0.370562 0.372708 0.028485 -0.156121 0.127833 -0.166314 0.123970 0.294389 -0.126019 -0.082096 0.104667 -0.118403 0.283802 -0.063239 -0.204694 -0.069030 0.019541 -0.085760 0.217502 0.038673 0.039173 -0.042940 0.271882 -0.152016 0.331116 0.221345 0.002849 -0.122515 -0.103992 -0.153212 -0.109270 0.160484 0.071993 -0.023852 0.064913 0.034321 0.025920 0.035498 -0.213922 -0.172020 -0.025613 0.198951 -0.163150 0.203139 -0.117575 0.095215 -0.079984 0.195323 0.030899 0.102900 -0.163616 0.244079 -0.129588 -0.064638 -0.256323 -0.030002 0.070818 -0.835131 -0.463427 0.402560 -0.517589 -0.218769 0.122855 0.096549 0.266030 -0.012616 0.269589 0.114778 -0.109155 -0.221785 0.572221 -0.106128 0.427773 -0.711664 0.467177 -0.164842 -0.185143 -0.160426 -0.191057 -0.100667 -0.260150 -0.367051 0.356484 -0.557057 0.132343 -0.563289 -0.439445 0.010232 -0.032943 -0.006131 -0.303288 -0.627328 0.005200 -0.950757 -0.552796 0.410798 -0.269308 -0.046208 -0.154493 -0.309455 -0.005684 0.189762 0.049749 0.107774 0.282912 0.284640 0.200341 -0.166602 -0.378846 -0.256516 0.303507 0.030929 -0.006679 0.041620 0.078849 0.123980 0.065130 -0.145950 0.147453 -0.023951 -0.264001 -0.563710 -0.078549 0.041807 0.044281 -0.306959 0.350210 0.085083 0.035365 -0.014120 0.406723 0.204042 0.140589 -0.375805 0.197417 -0.281786 0.143027 0.125389 -0.216754 -0.169653 -0.127277 -0.080958 -0.021828 -0.217536 -0.078729 -0.309872 0.451296 0.093813 0.091335 0.029350 0.284250 0.333223 -0.115820 -0.520181 0.113750 0.079052 -0.170541 -0.945954 -0.106133 -0.004516 0.210359 -0.039499 -0.160140 -0.062555 -0.112186 0.058897 -0.126850 0.057869 -0.272605 -0.106794 0.137645 0.057180 0.279014 0.368714 -0.037946 -0.331842 0.013497 0.222296 0.425492 0.127026 -0.084154 -0.001649 -0.154548 0.218658 0.106263 0.106020 0.312813 0.135284 0.177321 0.110794 -0.638103 -0.062254 0.146786 0.157936 -0.147329 -0.018430 -0.075508 -0.099342 0.513257 0.045898 0.347821 -0.353332 0.169656 -0.057368 -0.311622 -0.303383 0.109561 0.082621 0.092279 -0.241712 0.076508 -0.159538 0.142042 -0.038337 0.503237 -0.023904 0.172101 -0.362631 -0.066734 0.092621 0.050448 -0.079411 -0.090073 0.104092 -0.208639 0.001883 0.129936 0.019643 0.048548 -0.109531 0.069239 0.073520 -0.088903 -0.117159 -0.423831 -0.545610 -0.162606 -0.243729 -0.961368 0.615840 -0.388940 -0.338755 -0.228134 0.073379 0.013395 0.154782 -0.128750 0.277063 0.055717 -0.438201 0.184246 0.147455 -0.321801 -0.113817 0.094210 0.246710 0.172500 -0.162538 -0.071138 -0.028323 0.102739 -0.111647 0.241307 0.244020 -0.189458 -0.033723 -0.207950 -0.175642 -0.364421 -0.345016 0.100313 0.289386 -0.270244 -0.146154 0.114660 -0.032708 0.109718 0.154490 0.199680 0.446804 -0.150671 -0.024077 -0.342373 -0.159438 -0.190021 0.528512 -0.512077 -0.350408 -0.300126 0.634881 -0.179909 0.105928 -0.707401 -0.177318 -0.105982 0.203272 -0.257609 -0.122711 0.241984 0.371551 -0.553267 0.087567 -0.057647 0.218252 0.181866 -0.192108 0.036102 -0.096246 0.188387 -0.028654 0.153925 0.002398 0.226289 -0.349508 0.054964 0.196431 0.269363 0.103913 0.047450 0.001317 0.123747 -0.044601 -0.063197 -0.098274 0.107580 -0.484619 0.024488 -0.390366 0.049911 -0.117910 0.023106 -0.018726 0.080436 0.260670 0.233180 -1.027465 -0.003684 0.036756 -0.106828 0.028465 -0.015190 -0.195724 -0.013305 -0.099497 -0.078462 0.082236 -0.066422 0.196403 -0.025180 0.147304 0.070998 -0.000517 0.055118 -0.208169 0.062744 -0.200546 -0.265290 -0.553834 -0.024942 0.011697 -0.267644 0.059417 -0.210851 -0.154288 0.466235 0.583085 -0.064124 -0.398266 -0.158096 0.362989 0.027292 0.312277 -0.312419 -0.392678 0.089889 0.538618 -0.013405 0.074330 -0.158562 -0.303982 0.381644 0.144634 0.034009 0.182883 -0.043525 -0.056904 -0.041576 0.202571 -0.238984 0.157207 0.000420 -0.216413 -0.101077 -0.239008 -0.168024 0.057716 0.147359 -0.040583 -0.343642 -0.210193 -0.170721 -0.455807 -0.057211 0.134585 -0.197794 0.106197 0.169005 0.222706 0.065114 -0.088811 -0.155004 0.080239 -0.063375 -0.069755 0.295963 0.402686 -0.058929 -0.228730 0.033723 -0.179820 0.056726 0.120154 0.058924 -0.204456 0.117094 0.081962 -0.085886 -0.067600 0.022585 -0.073025 -0.553464 0.273097 -0.055744 0.058849 -0.575531 0.401950 -0.174009 -0.016233 0.120769 0.700632 -0.027561 -0.281469 0.635586 -0.073286 0.040828 0.081723 0.044519 0.315136 -0.293033 0.370464 0.022403 -0.074438 0.153091 0.043729 0.488717 0.092223 0.405036 -0.145858 0.014948 -0.066241 -0.065145 -0.519562 0.214475 -0.159721 -0.004975 0.205856 -0.401485 -0.077031 -0.084215 -0.181773 0.314556 -0.042359 0.023540 -0.184481 -0.225814 0.072523 -0.112893 0.454287 -0.103235 0.035893 0.225177 0.428516 -0.085180 -0.194477 0.381758 -0.089487 -0.004809 -0.306835 0.136488 0.322702 0.086853 -0.343390 -0.033301 -0.211594 0.065600 0.168231 0.097736 -0.210023 0.033387 -0.098715 0.104214 -0.039281 0.368099 0.041189 0.161753 0.152762 -0.520738 -0.105685 0.029885 -0.581657 -0.324971 0.157687 0.053434 -0.022999 -0.272487 -0.173323 0.203251 -0.413754 -0.324007 0.437048 0.044947 0.132049 -0.053609 -0.089920 -0.097546 0.067735 
48 48
